<?xml version="1.0"?>
<opencv_storage>
<opencv_ml_svm>
  <format>3</format>
  <svmType>EPS_SVR</svmType>
  <kernel>
    <type>LINEAR</type></kernel>
  <C>1.0000000000000000e-02</C>
  <p>1.0000000000000001e-01</p>
  <term_criteria><epsilon>1.0000000000000000e-03</epsilon>
    <iterations>1000</iterations></term_criteria>
  <var_count>3780</var_count>
  <sv_total>1</sv_total>
  <support_vectors>
    <_>
      -1.13624078e-03 -8.48774100e-04 3.70221562e-03 1.41635293e-03
      1.20239111e-03 -2.73242826e-03 -1.52819196e-03 -2.65051145e-03
      7.13441579e-04 -1.71630364e-03 1.46938278e-03 6.71793707e-03
      8.73382553e-04 -1.43496576e-03 -4.20457590e-03 -3.12687200e-03
      -2.28359015e-03 4.04393562e-04 -5.34625957e-03 -2.26944359e-03
      3.44817294e-03 2.03402108e-03 1.54140964e-03 -5.19787613e-03
      -2.32405053e-03 -1.03415246e-03 -1.83326390e-03 -3.90792126e-03
      -2.71319179e-03 1.15997926e-03 -2.79640779e-03 -3.48397857e-03
      -5.99719025e-03 -4.22165263e-03 -2.23771855e-03 -1.60433003e-04
      -2.46279314e-03 -9.26556764e-04 4.61669359e-03 8.01495742e-04
      2.74155638e-04 -1.45558815e-03 -9.31171060e-04 1.26462628e-05
      7.32932647e-04 1.60209776e-03 -4.25096741e-03 1.52437156e-03
      -1.09629403e-03 -1.74735804e-04 -1.57332374e-03 -1.04099174e-03
      1.58647308e-03 1.26064196e-03 -3.28445062e-03 -4.06332966e-03
      8.31699756e-04 -2.35023070e-03 -3.49007943e-03 -3.24733974e-03
      -2.11394252e-03 -1.03528996e-03 -7.34729052e-04 -2.61474308e-03
      -3.58142774e-03 -5.70394434e-07 -2.27877661e-03 -2.65760068e-03
      -4.51478828e-03 -1.44947961e-03 -6.19082595e-04 -4.77265893e-03
      2.47260905e-03 -2.22946028e-03 -7.61287636e-04 -6.09350216e-04
      -1.27913198e-03 -3.40503454e-03 -1.33484812e-03 -1.06896186e-05
      1.05320150e-03 3.22553143e-03 -1.07063365e-03 -4.21318284e-04
      1.13225740e-03 3.02221975e-04 -1.54601317e-03 -4.01729863e-04
      -6.55079493e-04 1.40914926e-03 1.38985610e-03 -3.40056169e-04
      -8.26196556e-05 -2.99361884e-03 -3.18975886e-03 -3.93672520e-03
      -2.53633107e-03 -2.69940414e-04 -1.90493651e-03 3.00664757e-03
      3.13305482e-03 1.90897670e-03 3.55117700e-05 1.26464048e-03
      2.94482335e-04 -9.82284779e-04 -2.38160393e-03 -2.25991607e-04
      9.50607318e-06 1.12450437e-03 -1.51248183e-03 -7.82760890e-06
      -9.32811934e-04 -1.19997794e-03 -6.76043623e-04 -2.06053350e-03
      -3.32439248e-03 -3.33516998e-03 -1.32024710e-04 -4.72679181e-04
      1.90972860e-04 -1.05537183e-03 -9.08795337e-05 7.17294984e-04
      -6.54954580e-04 -6.49374491e-03 5.53173386e-03 6.40403014e-03
      1.37824961e-03 -3.83591920e-04 -6.88273343e-04 8.31434445e-05
      -2.03955336e-03 -2.57046451e-03 -1.66827161e-03 1.41697621e-03
      3.06333043e-03 1.68449373e-03 1.19341619e-03 -1.07276707e-03
      5.33031998e-04 1.78337807e-03 7.41938944e-04 -9.54801624e-04
      -5.11183962e-03 -2.31940439e-03 -4.62170341e-04 -6.62880426e-04
      -1.57920679e-03 1.34203036e-03 1.37585017e-03 4.11572808e-04
      -4.45536850e-03 -4.04805731e-04 -1.02258567e-03 -7.34021829e-04
      -2.26723053e-03 -3.76400515e-03 -1.35999324e-03 -1.61035697e-03
      -3.70903779e-03 -2.43896223e-03 -4.10372973e-04 5.77640021e-04
      2.82739801e-03 7.42357050e-04 -1.25057786e-03 -1.95104469e-04
      1.99649832e-03 -2.00787140e-03 -6.22662250e-04 7.23091362e-04
      2.98448070e-03 3.87099269e-03 -3.49369744e-04 -6.66611071e-04
      -6.61708182e-05 -1.37072080e-03 -5.03055425e-03 -2.37879256e-04
      6.50526199e-04 1.20460719e-03 -1.65797642e-03 -2.82842619e-03
      -3.09868017e-03 -2.91635329e-03 -2.17273831e-03 -4.66348184e-03
      8.67156952e-04 2.75676884e-03 -1.15119119e-03 -4.19907179e-03
      -4.60334728e-03 -7.29934173e-03 -4.81514772e-03 -1.60945544e-03
      -1.63563807e-03 3.28855403e-03 2.56568263e-03 6.09627366e-03
      3.96046601e-03 -1.37632468e-03 -2.51804781e-03 -1.72778929e-03
      -2.30950047e-03 -3.81812779e-03 5.41618094e-04 3.78005183e-03
      3.59271932e-03 3.58159770e-03 -3.53658595e-03 -6.35750080e-03
      -4.02798364e-03 -1.60410465e-03 -1.76530005e-03 3.30988038e-03
      5.38329070e-04 -6.92288764e-03 -6.48906408e-03 -4.18219948e-03
      -6.20381860e-03 -4.57271654e-03 -2.82770791e-03 -3.62481398e-04
      1.92289136e-03 2.94173532e-03 -5.30897221e-03 -4.56983456e-03
      -3.13979969e-03 -4.82641766e-03 -4.60138964e-03 -3.09511693e-03
      -6.06557805e-05 4.56970278e-03 -1.52416818e-03 3.19773972e-04
      -1.99912069e-03 -2.68149679e-03 -4.22299514e-03 -2.49678595e-03
      -1.81574351e-03 -1.32692989e-03 2.36667483e-03 2.96999584e-03
      -1.01644627e-03 -2.00871131e-04 -3.10647651e-03 -3.65693960e-03
      -2.63791019e-03 -1.97393121e-03 -2.41414458e-03 4.23942227e-03
      1.13994721e-03 -7.38908537e-03 -3.22847138e-03 -3.39028426e-03
      -4.28720703e-03 -3.07764369e-03 -3.29211820e-03 -2.43799039e-03
      1.18285592e-03 5.05023263e-03 -6.49413886e-03 -7.64146494e-03
      -3.92890163e-03 -3.74521152e-03 -1.44085672e-03 -2.11556302e-03
      -2.66708131e-03 5.27858594e-03 2.48246267e-03 -3.18358373e-03
      -3.99514707e-03 -5.78356301e-03 -5.59008121e-03 -6.17448334e-03
      -2.79529975e-03 -2.25341250e-03 3.03351879e-03 2.72211409e-03
      -5.52937062e-03 -6.38938881e-03 -5.21867117e-03 -6.11423794e-03
      -7.27159344e-03 -4.47514467e-03 8.69841897e-04 5.89464651e-03
      8.82595894e-04 -8.02886020e-03 -6.47053309e-03 -4.13666246e-03
      -4.67773760e-03 -1.59694068e-03 -1.14695565e-03 3.56687326e-03
      4.28871764e-03 2.29946431e-03 -4.97197080e-03 -3.73249082e-03
      -4.35150787e-03 -3.20636970e-03 -3.32922139e-03 -1.99050666e-03
      2.38747802e-03 1.38093752e-03 -2.87560350e-03 -7.75617966e-03
      -4.97829728e-03 -2.73595052e-03 -3.08987708e-03 -3.98914609e-03
      -1.31265214e-03 5.19171078e-03 4.64601116e-03 -4.60002385e-03
      -2.21962994e-03 -1.13716419e-03 -4.71472231e-05 -7.28853396e-04
      -5.51644596e-04 4.38192021e-03 3.53264762e-03 1.22697256e-03
      6.48778444e-03 -9.08206857e-04 -1.22303166e-03 -2.68565980e-03
      -2.59578926e-03 -4.22930764e-03 -2.79213954e-03 -2.23719003e-03
      2.38530152e-03 5.90068568e-03 -1.72008516e-03 -3.92758613e-03
      -5.59661444e-03 -6.83097821e-03 -7.64089311e-03 -1.80800061e-03
      -2.34628841e-03 4.86173667e-03 -4.96915891e-04 9.61050740e-04
      -7.46438396e-04 -1.40474201e-03 -1.86987058e-03 -2.11973573e-04
      2.38296040e-03 -1.79351715e-03 -1.20455946e-03 1.58922421e-03
      -4.93545271e-03 -5.20273345e-03 -4.85109491e-03 -6.90854015e-03
      -3.20995087e-03 7.40292016e-04 7.43979122e-04 1.44720462e-03
      4.21601022e-03 -4.24031774e-03 -2.00132234e-03 -3.64132947e-03
      -6.45588432e-03 -5.70636336e-03 2.45230098e-04 2.59651802e-03
      4.84777614e-03 4.44587925e-03 -4.03766474e-03 -3.45281069e-03
      -2.01484701e-03 -1.99245685e-03 -6.01788145e-03 -4.00056923e-03
      3.64444172e-03 5.04035456e-03 -6.31738105e-04 -5.53900516e-03
      -4.79036476e-03 -3.58461961e-03 -7.49854604e-03 -3.19313817e-03
      2.49478058e-03 5.77203371e-03 4.89550177e-03 -2.08114390e-03
      -5.67583647e-03 -6.69516856e-03 -4.37933905e-03 -9.33776423e-03
      -5.13769314e-03 -6.35801000e-04 3.71986884e-03 2.50439043e-03
      7.53633445e-04 -4.84378962e-03 -2.93947943e-03 -1.07778597e-03
      -8.38534732e-04 -5.08201309e-03 -4.14008787e-03 4.55243932e-03
      7.27610383e-03 -9.55361698e-04 -4.24276106e-03 -8.87658913e-04
      -8.65291920e-04 -2.46244669e-03 -4.38462896e-03 -5.53462887e-04
      3.76453390e-03 3.41955945e-03 -3.16794124e-03 -4.78226319e-03
      -4.00446588e-03 -2.95355963e-03 -6.04692148e-03 -5.07262629e-03
      -2.01447285e-03 4.82710311e-03 7.47757207e-04 -5.64038381e-03
      -4.24558436e-03 2.57679989e-04 -1.07229152e-03 -7.65557308e-03
      -5.01959864e-03 8.53274949e-04 4.99976426e-03 -3.34333279e-03
      -2.03749980e-03 -4.24872478e-03 -1.96992327e-03 -3.29265837e-03
      -3.67050758e-03 -1.07919227e-03 1.48125517e-03 3.94357927e-03
      5.18649642e-04 -5.53418696e-03 -6.41106581e-03 -4.03157435e-03
      -5.45845181e-03 -1.42450863e-03 4.81876952e-04 3.93220736e-03
      4.20746394e-03 3.47126508e-04 -6.39436580e-03 -3.91552690e-03
      4.41348056e-05 -1.53769320e-03 -5.72376233e-03 -3.20582278e-03
      2.02516187e-03 3.40132089e-03 -4.53174440e-03 -6.05406659e-03
      -4.36454313e-03 -1.15309528e-03 -1.61737041e-03 2.06353114e-04
      3.84217827e-04 2.11993395e-03 2.32397602e-03 -4.24666749e-03
      -4.54934174e-03 -3.58491438e-03 -1.77444343e-03 -1.57088169e-03
      3.42949363e-03 1.33603055e-03 4.19327291e-03 3.92166059e-03
      2.97023071e-04 -3.52935889e-03 -6.95188111e-03 -4.73865774e-03
      -1.91888213e-03 -4.43668745e-04 -3.71676241e-03 -5.87177288e-04
      -6.59978075e-04 -1.17596949e-03 -3.26564792e-03 -1.13545323e-03
      -3.68981782e-05 1.97449909e-03 6.45010453e-03 2.98302248e-03
      2.55841675e-04 -1.02760817e-03 -5.15561318e-03 -2.86121666e-03
      -2.04514666e-03 -4.29880020e-04 -7.41441472e-05 2.56047631e-03
      -2.66263704e-03 -1.00401696e-03 -4.21117060e-03 -3.43154743e-03
      -4.15086327e-03 -7.23110465e-03 -4.86430153e-03 -1.89448765e-04
      1.70599401e-03 -1.10618491e-03 2.32836837e-03 1.76685234e-03
      2.22692220e-03 -4.62725339e-03 -8.32998473e-03 -4.76849731e-03
      -2.24038307e-03 2.07655807e-03 -2.54241750e-04 5.37955086e-04
      1.56160921e-03 1.09615026e-03 -2.48454697e-03 -1.38120458e-03
      -1.29618880e-03 1.77337017e-04 3.14401835e-03 -9.40313446e-04
      4.54676803e-03 1.07448862e-03 -1.68643822e-03 -3.84975947e-03
      -3.32165393e-03 -2.69610179e-03 5.44356124e-04 4.90528112e-03
      7.54777458e-04 2.41196691e-03 7.91104467e-05 -1.66503573e-03
      2.49758537e-04 1.31683517e-03 3.89666739e-03 -9.39210295e-04
      1.78532896e-03 -5.29807573e-03 -4.08095540e-03 -2.05913815e-03
      -3.77551478e-04 -3.28471979e-05 8.72786506e-04 3.09518818e-03
      -1.57518301e-03 -2.04707100e-03 -5.24951797e-03 -2.19446793e-03
      -2.75783846e-03 -6.96720439e-04 4.59851138e-03 3.48955439e-03
      9.94647737e-04 -2.32948034e-04 1.06386782e-03 -2.69817701e-03
      -4.91871499e-03 -6.12554653e-03 9.03180800e-04 -1.13630178e-03
      9.65643732e-04 1.92002580e-03 -9.24811233e-04 -1.44541811e-03
      -5.64948330e-03 -7.44394585e-03 -6.52173301e-03 -1.16177334e-03
      -5.57359133e-04 -1.81301919e-04 7.81617826e-04 1.32516224e-03
      -2.93957745e-03 -1.76311482e-03 -2.08797836e-04 -3.06872046e-03
      -1.27069151e-03 2.80645472e-04 7.00440083e-04 1.28709886e-03
      1.22973206e-03 -1.56356615e-03 -3.63893085e-03 -1.30708737e-03
      -2.89023481e-03 -1.47256558e-03 1.71206391e-03 -2.49017059e-04
      4.46085003e-04 -6.74681447e-04 -4.38865460e-03 -4.53963876e-03
      -2.79989955e-03 -3.58865806e-03 -2.37068176e-04 -1.78603653e-03
      -4.08798107e-04 -2.40509893e-04 2.30064406e-03 9.47394947e-05
      -3.07800621e-03 -9.55480718e-05 -1.08312513e-03 -2.49271374e-03
      -3.16575242e-05 3.14730499e-03 2.34574242e-03 -7.71919906e-04
      -3.00908531e-03 -5.45278145e-03 -4.83201351e-03 -1.80676428e-03
      7.06506427e-04 -1.14066654e-03 3.46785458e-03 3.28045688e-03
      4.33336990e-03 1.47502299e-03 -4.07259678e-04 -4.49013244e-03
      -2.23973324e-03 -1.88814942e-03 -5.30830876e-04 3.90537840e-04
      1.94087997e-03 1.26554375e-03 -8.00740905e-04 -5.20223239e-03
      -4.01323941e-03 -9.10197967e-04 -1.53178314e-03 -4.77387599e-04
      2.47245282e-03 4.32538893e-03 6.01837505e-03 -5.30050194e-04
      -1.94185344e-03 -5.00873756e-03 -3.66626098e-03 -1.12005649e-03
      -3.88592802e-04 1.66130380e-03 2.07058736e-03 2.63393926e-03
      3.76315031e-04 -2.49675923e-05 -2.70288298e-03 -1.10740610e-03
      -3.74571397e-03 -2.98290490e-03 3.13168298e-03 2.75136065e-03
      2.80050118e-03 1.28776697e-03 2.64613959e-03 1.87065243e-03
      2.09448906e-03 -3.58633907e-03 -3.83876613e-03 -1.36056356e-03
      3.19738244e-03 7.50780385e-03 1.09616551e-03 4.84071730e-04
      -3.21183284e-03 -3.32508958e-03 -3.95095255e-03 -4.36827494e-03
      -7.94205116e-04 5.14110038e-03 7.29818828e-03 4.18772688e-03
      3.20179877e-03 -2.08150930e-04 -3.52104747e-04 -1.74602622e-03
      -1.78781257e-03 7.34449190e-04 2.35794671e-03 1.96903409e-03
      -1.39074179e-03 -1.79403854e-04 4.53210319e-04 1.10054483e-04
      -3.04371561e-03 -2.53804703e-03 3.49777890e-03 4.40276228e-03
      -3.95079958e-04 -2.22953712e-03 1.40509801e-04 -8.30043922e-04
      -6.86870771e-04 -3.40614049e-03 -1.15063437e-03 6.93662849e-04
      1.77970331e-03 3.11534619e-03 -8.34670092e-04 1.85396857e-04
      -1.32400042e-03 4.81582014e-04 1.92934810e-03 1.99274276e-03
      2.68304464e-03 1.69245526e-03 1.56759843e-03 -2.30372790e-03
      1.86879188e-04 -4.83411161e-04 2.67048553e-03 2.99591129e-03
      -5.04609011e-03 4.07688739e-03 4.16992325e-03 -1.27328816e-03
      -3.36754136e-03 -3.32432752e-03 -3.62002454e-03 -1.63793447e-03
      -2.99961097e-03 -1.81404292e-03 4.13538376e-03 5.57749020e-03
      -1.87180052e-03 -5.16532827e-03 -3.88703635e-03 -9.57073411e-04
      -1.28625589e-03 -4.04392742e-03 -5.28293196e-04 3.63258878e-03
      2.60282238e-03 7.24226295e-04 -1.98971480e-04 1.99237940e-04
      -1.35269400e-03 2.17151525e-03 9.45245498e-04 4.70085390e-04
      3.50242131e-03 2.42382754e-03 -1.49088143e-03 -9.43685242e-04
      1.18489400e-03 1.75115839e-03 1.97992529e-04 -1.43287855e-03
      2.51875754e-04 2.58019567e-03 1.95227040e-03 -1.76552089e-03
      -4.25804965e-03 2.12771163e-04 3.09146038e-04 -2.83270865e-03
      -2.45267665e-03 3.38449306e-03 2.43079662e-03 2.19386583e-03
      -2.55443878e-03 -2.79744668e-03 2.45643983e-04 1.04233017e-03
      -3.46786762e-03 -1.19904045e-03 -4.21471981e-04 8.01790331e-04
      -1.44252801e-04 -2.86599924e-03 -4.66224412e-03 3.20383045e-03
      3.18813045e-03 -3.34790046e-03 -3.83924576e-03 1.32990628e-03
      5.29874465e-04 4.73337102e-04 -1.42894336e-03 -3.97172570e-03
      -2.19397363e-03 -1.03702268e-03 -2.68302602e-03 -1.02714926e-03
      3.59201035e-03 -2.10050741e-04 -6.03104767e-04 -3.60480370e-03
      -4.67999047e-03 -4.96313302e-03 -2.82792444e-03 -3.28184804e-03
      -1.07947248e-03 2.48161610e-03 -1.27512484e-03 -2.66140257e-03
      -1.85545697e-03 -4.37020278e-03 -4.49566497e-03 -3.10644973e-03
      2.68210551e-05 4.19813022e-03 2.04916392e-03 -3.30022583e-03
      -1.43278274e-03 -1.77489442e-03 -4.08968376e-03 -4.11171280e-03
      -4.68017859e-03 -4.34878888e-03 2.90288153e-04 5.00015076e-03
      -3.28215025e-03 -1.51247135e-03 -9.55532771e-04 -5.04623586e-03
      -3.38425441e-03 -3.11130029e-03 -8.47038231e-04 7.13801337e-03
      -4.20100102e-03 -5.38729643e-03 -3.30913533e-03 -2.62165442e-04
      -3.06487805e-03 -3.47506837e-03 -1.46245013e-03 1.64885994e-03
      3.59573588e-03 -1.05285337e-02 -4.63013118e-03 -1.58799812e-03
      2.39503384e-03 1.82808808e-03 1.10673357e-03 2.48356280e-03
      2.42890581e-03 -2.90781539e-03 1.45738432e-03 -5.54743968e-03
      -3.51931015e-03 -9.71757807e-04 -2.26422353e-03 -2.73965416e-03
      -3.55705176e-03 -1.08501350e-03 4.13849065e-03 -4.70678229e-03
      -4.10726108e-03 -4.13562870e-03 4.68023703e-04 2.57613254e-03
      -7.58126771e-05 -1.18477573e-03 2.36288249e-03 1.80452061e-03
      -6.85730204e-03 -2.83394288e-03 -1.42860797e-03 2.04875250e-04
      2.22745189e-03 2.54876819e-03 3.33901518e-03 1.41662534e-03
      -6.34925347e-03 -6.33168546e-03 -7.07979873e-03 -4.27880324e-03
      -1.69049122e-03 -8.16644169e-04 3.00388411e-03 3.81421857e-03
      1.82887586e-03 -4.85444954e-03 -3.42795416e-03 -4.79103671e-03
      -3.58212460e-03 1.08435121e-03 4.28023608e-03 2.40630331e-03
      4.94975736e-03 1.31977652e-03 -2.10194034e-03 -3.60113475e-03
      -3.18392087e-03 -1.72809977e-03 2.02493859e-03 3.56563949e-03
      2.71425513e-03 4.72850259e-03 3.84962210e-03 -2.35965475e-03
      -7.08325393e-03 -3.95399705e-03 -1.92145584e-03 -1.19313051e-03
      -2.24024593e-03 1.01628562e-03 5.39714005e-03 7.33002741e-03
      -2.72468058e-03 -4.04653698e-03 -6.11222000e-04 -3.19518312e-03
      -1.83018646e-03 -9.32636205e-03 -6.24237815e-03 1.62223389e-03
      4.91379527e-03 -2.59350659e-03 -4.21264069e-03 1.04780588e-03
      1.06481242e-03 3.04211583e-03 2.32057413e-03 2.84188148e-03
      4.58598696e-03 7.51361717e-03 -1.12653978e-03 -1.93304021e-03
      1.90246210e-03 3.19413171e-04 -3.55338532e-04 -1.87542208e-03
      -2.25734524e-03 3.03316186e-03 2.57299724e-03 -1.14708755e-03
      -2.95506977e-03 8.50462879e-04 -1.41478016e-03 -2.99214828e-03
      -5.14264172e-03 -2.94936472e-03 2.94693653e-03 5.42075280e-03
      8.03561124e-04 -2.60834536e-03 6.72387832e-04 2.83792429e-03
      -2.72719050e-03 -7.83182308e-03 8.38538472e-05 3.49314767e-03
      3.83178354e-03 -2.56052753e-03 -1.59158109e-04 3.22864181e-03
      1.33567781e-03 -2.76181963e-03 -2.97001307e-03 -2.65390752e-03
      1.88649062e-03 2.32058042e-03 7.67317542e-04 -3.61098233e-03
      1.80249871e-03 3.21008987e-03 -4.64830734e-03 -4.85255476e-03
      -3.82602273e-04 9.21766507e-04 1.59375870e-03 -2.20190757e-03
      -5.56301232e-03 1.30857190e-03 3.45569616e-03 -1.16927631e-03
      -3.91779095e-03 9.13423370e-04 1.75711536e-03 1.85074890e-03
      -7.02659972e-03 -3.56291211e-03 2.62395100e-04 3.18669924e-03
      1.19091815e-03 1.93780195e-03 2.58016936e-03 -7.21628196e-04
      -3.57781956e-03 -6.79719215e-03 -5.77731291e-03 5.39063069e-04
      1.68008171e-03 -3.72842117e-03 -5.97879349e-04 3.25608393e-03
      2.23334343e-03 9.16391145e-04 -6.35579368e-03 -4.86626476e-03
      -1.87613850e-03 6.82141166e-04 6.75051706e-04 3.88174900e-03
      6.05046237e-03 2.93817720e-03 -1.85958855e-03 -5.71837369e-03
      -2.69572856e-03 1.83607452e-03 1.26352708e-03 2.87959608e-03
      4.76820255e-03 1.81132474e-03 -1.64709182e-03 -4.83434135e-03
      -4.33702581e-03 -4.80910065e-03 -9.06228321e-04 -8.17086489e-04
      -1.58484727e-05 1.42468116e-03 -1.72923086e-03 -1.64057489e-03
      -5.63626597e-03 -4.47980501e-03 -4.16684011e-03 -1.06109667e-03
      1.30297046e-03 3.13986978e-03 6.70804083e-03 4.82797716e-03
      1.41972408e-03 -2.20466708e-03 -4.64178855e-03 -3.16429907e-03
      -3.58091923e-03 -2.60881177e-04 1.44279620e-03 1.69232328e-04
      2.70241871e-04 1.28613506e-03 -1.71960273e-03 -1.92884577e-03
      -3.96400411e-03 -3.55819619e-04 -4.64240671e-04 8.15416919e-04
      1.81201869e-03 -8.48840689e-04 3.91467445e-04 -7.76855450e-04
      -2.82419217e-03 -6.07700134e-03 -1.65333436e-03 2.41011498e-04
      1.44609308e-03 3.65625275e-03 -6.30610914e-04 -3.62709921e-04
      8.14926985e-04 -3.74539685e-03 2.17903653e-06 -3.48802045e-04
      6.31252769e-04 2.56480160e-03 -8.72063683e-04 -9.10489834e-05
      -1.35678716e-03 2.03081220e-03 1.31929887e-03 3.26154288e-03
      -6.84589846e-04 9.01245163e-04 1.75562419e-03 -3.10659816e-05
      -1.45654671e-03 -2.74834980e-04 6.48258836e-04 4.22744313e-03
      2.51417141e-03 1.01039186e-03 -2.01769453e-03 7.38387345e-04
      1.60489639e-03 -2.71396770e-04 -1.32268213e-03 -9.27917368e-04
      1.53610599e-03 1.48642503e-04 1.22269487e-03 -2.86961393e-03
      -1.29055337e-03 -9.95784882e-04 -1.39778526e-03 -4.61466564e-03
      -2.33814167e-03 2.12521222e-03 -1.69548474e-03 -4.70987009e-03
      -5.27880434e-03 -2.34163669e-03 2.86505837e-03 3.50415183e-04
      -2.05808683e-04 1.12822826e-03 1.72944576e-03 -2.87548336e-03
      -1.85796875e-03 -5.13273058e-03 -3.62766837e-03 2.13959021e-03
      1.82503741e-03 -1.66235107e-03 2.16338853e-03 -1.15880379e-04
      7.93730025e-04 2.74362857e-03 -7.36966264e-04 -8.26225558e-04
      -1.92750373e-03 -8.52873723e-04 -2.66519608e-03 -1.91756384e-03
      -1.04098045e-03 -2.30641779e-03 -8.23224022e-04 -2.19642432e-04
      6.17829442e-04 2.52273730e-05 -6.52713527e-04 1.24723578e-04
      2.03128951e-03 -1.80444319e-03 -8.22497532e-04 1.42809458e-03
      1.93490458e-04 -6.29572780e-04 1.73081047e-04 2.42494908e-03
      -3.53386538e-04 -3.11868440e-04 -1.90403871e-03 4.02728299e-04
      4.17817943e-03 2.89723394e-03 6.17664948e-04 1.58655213e-03
      -1.26352825e-03 -5.41544461e-04 -6.61797123e-04 -7.04056700e-04
      -4.21257643e-03 -1.10478350e-03 1.86468533e-03 1.02484599e-03
      2.01008836e-04 -1.78760150e-03 -1.09972293e-03 1.70255417e-03
      -3.09899147e-03 -8.85903602e-04 2.25579785e-03 4.92679980e-03
      4.39097267e-03 1.38859628e-04 1.12450065e-03 -2.47447542e-03
      -2.23646383e-03 -3.74459056e-03 -2.80985236e-03 7.70744868e-04
      1.16940879e-03 -9.05132096e-04 3.15821660e-03 5.75472252e-04
      -3.99970246e-04 1.44573068e-03 -2.36311066e-03 -1.09469588e-03
      4.99975868e-03 5.05230343e-03 3.49706691e-03 3.69855482e-03
      3.56780743e-04 -1.54985324e-03 1.11796755e-04 -3.45039042e-03
      -2.19133706e-03 -1.76519691e-03 1.60525611e-03 1.34440861e-03
      6.73208779e-05 -2.55269319e-04 -4.40261187e-03 -5.31220809e-03
      -6.62798434e-03 -2.68501765e-03 -1.89848174e-03 1.62574905e-03
      2.07419670e-03 3.12820240e-03 2.48692464e-03 -1.20974530e-03
      -1.31893007e-03 -3.77958990e-03 -7.74001674e-05 4.54240805e-03
      5.21282339e-03 2.58422154e-03 9.08264483e-04 -4.55988524e-03
      -4.58692340e-03 -4.35797265e-03 -5.12996037e-03 -1.41689996e-03
      1.25674251e-03 4.00127284e-03 3.09448387e-03 2.17804825e-03
      -2.52317346e-04 -1.23745669e-03 -2.09007738e-03 -6.26731711e-03
      -2.40653101e-03 -5.85892936e-04 1.85137294e-04 -1.03806844e-03
      -3.99068173e-04 5.56196435e-04 -1.81469845e-03 -1.16882275e-03
      -4.01554117e-03 -1.10377068e-05 3.63854342e-03 1.07430620e-03
      5.96038590e-04 -8.41193134e-04 5.61128370e-04 -9.99245211e-04
      8.47930205e-04 -1.05281710e-03 -5.63269574e-03 -5.32538863e-04
      -5.63612557e-04 1.38682849e-03 2.64447503e-04 1.84152101e-04
      -9.32526309e-04 -3.52462521e-03 -6.53901696e-03 -4.26110253e-03
      3.06409178e-03 2.08693859e-03 2.85729556e-03 -7.47003825e-04
      1.34638988e-03 5.90970041e-04 -7.74860557e-04 -3.46695236e-03
      -2.14676699e-03 1.45445368e-03 5.52313926e-04 1.61827577e-03
      5.56793297e-04 1.44775130e-03 -3.42694460e-04 1.28789700e-03
      -1.95075478e-03 -3.31231556e-03 -1.01063051e-03 -7.55593181e-04
      -4.07637854e-04 -2.53416674e-05 4.27940628e-03 1.00272673e-03
      2.41319183e-03 -4.72033955e-03 -4.77500679e-03 -4.52762848e-04
      5.92210417e-05 1.30258338e-03 1.19263335e-04 3.11592332e-04
      5.49917109e-04 -9.34617536e-04 -2.07083253e-03 -4.94630914e-03
      -3.59503413e-03 -2.28448352e-03 -1.29538809e-03 -6.81665842e-04
      4.47913865e-03 2.99834739e-03 5.83223242e-04 -2.06783111e-03
      -5.24140615e-03 -2.62642559e-03 -1.16453122e-03 -2.10964214e-03
      -7.72411760e-04 6.47755805e-03 5.63503103e-03 1.67889943e-04
      -4.03555576e-03 -3.07905750e-04 -3.59339779e-03 -3.10120289e-03
      -3.21152620e-03 -3.46070644e-03 2.52708374e-03 2.34766398e-03
      -6.63251092e-04 -4.05930827e-04 -3.76037811e-03 -3.13325599e-03
      -9.57933720e-04 -3.11304204e-04 -1.84842065e-04 4.85556154e-03
      6.45038579e-03 9.52442933e-04 -2.87364796e-03 -4.40143095e-03
      -5.47555462e-03 -3.48437950e-03 -4.39349934e-03 -3.64310597e-03
      2.29790201e-03 5.78660518e-03 5.00606699e-03 -3.04550689e-04
      1.11932436e-03 -6.20824005e-03 -3.01173329e-03 -3.26034124e-03
      -4.32175770e-03 -3.26361274e-03 -1.18667306e-03 1.02636381e-03
      2.03509047e-03 4.18257993e-03 -4.80890414e-03 -1.19445601e-03
      -1.27159851e-03 -3.43041914e-03 -6.35004952e-04 -6.49986847e-04
      1.57875696e-03 6.95188949e-03 -4.19308059e-03 -8.19025561e-03
      -5.51265106e-03 -6.02083514e-03 -3.58927064e-03 -3.37083125e-04
      2.15018238e-03 3.77692236e-03 9.73176735e-04 -2.55188381e-04
      -2.82542082e-03 -1.64416654e-03 -7.57271890e-04 -7.39979267e-04
      2.64645694e-03 1.69422058e-03 4.62063588e-03 3.71642644e-03
      3.12661461e-04 -5.06282505e-03 -3.78427771e-03 -1.58505468e-03
      5.84723428e-04 1.38763944e-03 -2.18499452e-03 -1.03943795e-03
      2.39578518e-03 -6.38988568e-03 -7.75842834e-03 -6.77622901e-03
      1.53228804e-03 3.82702658e-03 2.03639548e-03 1.89581397e-03
      2.34337710e-03 1.97846768e-03 -3.11296224e-03 -4.53666318e-03
      -2.92287255e-03 -2.40304344e-03 2.18124432e-03 1.09864154e-03
      -3.10639595e-03 1.88374973e-03 6.51808223e-04 -3.73811671e-03
      -6.16841577e-03 -3.62702413e-03 1.32315292e-03 1.97301409e-03
      -5.52299200e-04 -4.33145324e-03 -3.01301642e-03 -3.19069624e-03
      -7.59392837e-03 -7.97935016e-03 -5.75737562e-03 1.46932760e-03
      2.83998461e-03 5.22453617e-03 4.93839709e-03 2.32734508e-03
      -4.99996531e-04 -7.96997640e-03 -3.10037448e-03 -1.02340779e-03
      1.98392430e-03 1.31226517e-03 2.69741798e-03 1.17496494e-03
      1.92126958e-03 -5.99657511e-03 -7.85590243e-03 -5.18751377e-03
      -2.78037624e-03 1.20947871e-03 1.08375179e-03 3.90032935e-03
      4.56557376e-04 -5.16703958e-03 -8.48989002e-03 -7.59767601e-03
      -3.29475384e-03 -2.48303497e-03 -1.52305549e-03 -6.20735344e-04
      5.41280769e-03 5.10200439e-03 1.00983889e-03 -7.28199771e-03
      -6.30470272e-03 1.24265009e-03 1.59269979e-03 2.61187553e-03
      2.01809872e-03 3.11383349e-03 3.12036346e-03 5.74915484e-03
      -5.04183769e-03 -5.93872927e-03 2.70367571e-04 -1.61483782e-04
      -1.11808896e-03 -1.73456167e-04 4.34650632e-04 4.98178974e-03
      2.40713544e-03 -6.41990360e-03 -7.93377496e-03 -1.92440627e-03
      -6.55837066e-04 4.52660955e-04 1.11704448e-03 8.10649805e-03
      4.63433051e-03 3.38128861e-03 -5.82143432e-03 -9.25692730e-03
      -4.91946004e-03 2.30985912e-04 -1.41301833e-03 -4.57949849e-04
      -9.12393443e-06 4.92253061e-03 1.79995818e-03 -7.72380689e-03
      -1.49831490e-03 3.08280950e-03 1.67125673e-03 -1.03717786e-03
      2.67599477e-04 2.93377409e-04 3.29123368e-03 1.42111571e-03
      -1.53857819e-03 -5.16762584e-03 -4.59161820e-04 2.99502932e-03
      -1.72571966e-03 1.28429223e-04 7.60543218e-04 1.94960763e-03
      2.15169555e-03 -3.77627020e-03 -3.43524991e-03 -8.49729404e-04
      2.54940894e-03 -1.78597425e-03 -7.76096305e-04 8.97487742e-04
      5.25972852e-03 3.28402291e-03 -4.93977265e-03 -3.36758792e-03
      -3.66672466e-04 3.10894405e-03 5.18983172e-04 -1.23129017e-03
      1.23419130e-04 2.28467095e-03 2.23200908e-03 -5.61815128e-03
      -5.34515223e-03 -2.49318406e-03 1.49567635e-03 -2.46754452e-03
      2.07524817e-03 2.92538339e-03 5.41704055e-03 4.60220966e-03
      -3.48895998e-03 -6.35435060e-03 -5.58327325e-03 2.68325559e-04
      8.67997078e-05 6.07035449e-03 9.89353843e-03 6.90895459e-03
      4.64162091e-03 -4.48575057e-03 -4.62964317e-03 3.58575460e-04
      3.29542230e-03 -4.32301458e-04 3.20213661e-03 1.03129202e-03
      1.45065703e-03 1.50637352e-03 -5.42390021e-03 -6.68672193e-03
      -3.05477902e-03 1.17273547e-03 5.57973341e-04 3.38502415e-03
      2.89192493e-03 -3.53670609e-03 1.23597169e-03 -5.16586471e-03
      -6.03017583e-03 -7.33194454e-03 -1.85872044e-03 4.09975619e-04
      3.79419792e-03 8.17232672e-03 2.99114641e-03 5.18286973e-03
      -2.38516857e-03 -7.23721366e-03 -6.35332381e-03 -1.52193732e-03
      1.88945734e-03 1.06209263e-04 3.98143008e-03 2.50133919e-03
      3.06156930e-03 -1.83251826e-03 -9.67558008e-03 -6.38719974e-03
      -1.64163113e-03 3.17774364e-04 4.09957999e-03 3.62161756e-03
      -3.13038635e-03 1.06655539e-03 -4.83419420e-03 -6.85424684e-03
      -4.15387750e-03 -3.09235416e-03 -3.59510275e-04 3.20692285e-04
      3.60925007e-03 1.27153494e-03 1.62297301e-03 -2.04362022e-03
      -2.80578155e-03 -2.82982085e-03 -1.72552280e-03 -4.30566943e-05
      -1.46572571e-03 1.93783571e-03 -9.00976942e-04 5.59144071e-04
      -7.00578385e-04 -9.02328884e-06 -1.36419223e-03 -4.74746339e-04
      4.55675647e-04 4.64176817e-04 5.59191161e-04 2.63391249e-03
      3.12869175e-04 -8.39190907e-04 -3.84595688e-03 -1.56712416e-03
      -2.35825963e-03 9.86916246e-04 7.34945352e-04 3.36206472e-03
      -1.10400131e-03 -8.03223287e-04 -3.17193172e-03 -3.41130630e-03
      -1.63374422e-03 -2.27640918e-03 2.66751368e-03 2.58161849e-03
      1.44352252e-03 7.89771148e-04 -2.08807737e-03 -3.32705653e-03
      -1.87621673e-03 -4.89138532e-04 -3.12759471e-03 -2.26624892e-03
      -4.86824109e-04 -8.66749382e-04 -1.77901599e-03 2.92662007e-04
      6.53158640e-04 -5.80377085e-03 -2.38931365e-03 -4.00558533e-03
      -3.30832042e-03 1.02534611e-03 2.14765291e-03 -1.55505637e-04
      2.76231766e-03 -2.21245646e-04 6.77383621e-04 -9.19753104e-04
      -3.26507678e-03 -1.07734988e-03 -1.30949670e-03 -3.69611871e-03
      -5.07253408e-03 -6.05437614e-04 6.86319036e-05 7.18413736e-04
      2.01858976e-03 -3.01978970e-03 1.41480225e-04 1.04436639e-03
      -1.53888739e-03 -2.77443533e-03 -1.49741711e-03 -5.98116952e-04
      -4.20645345e-03 -1.31412863e-03 -1.62759388e-03 -8.23113602e-04
      2.68676842e-04 3.24715208e-03 8.54497310e-04 6.69696426e-04
      -2.32593180e-03 -1.98220229e-03 3.59058683e-03 1.89767231e-03
      -6.44887623e-04 5.74063102e-04 5.02915354e-04 1.42174540e-04
      -9.54797259e-04 -4.73544467e-03 -3.11067735e-04 3.04110372e-03
      8.70312157e-04 1.09360041e-03 -1.09459891e-03 -5.57183754e-04
      9.64689843e-06 -3.97187134e-04 -1.55434257e-03 -3.11499974e-03
      2.65595317e-03 2.18413328e-03 5.45129995e-04 5.58106462e-04
      -1.97575870e-03 7.55740155e-04 2.33499985e-03 -2.24221614e-03
      -1.95006665e-03 2.25763884e-03 -7.62255571e-04 -2.45883665e-03
      -6.15807949e-05 -1.16552757e-04 -1.96420052e-03 -1.43892772e-03
      -3.89196863e-03 5.88190334e-04 2.46661925e-03 1.73002237e-03
      9.89934662e-04 3.03929253e-03 -5.27454482e-04 -3.92962759e-03
      -2.70852353e-03 -2.15270766e-03 -2.10501789e-03 2.37866980e-03
      -1.03637949e-03 -1.23412523e-03 -1.40228355e-03 -1.54896535e-03
      -2.28843698e-03 6.06884598e-04 -1.67285372e-03 -2.58006854e-04
      8.05312651e-04 -1.19047609e-05 5.32746955e-04 8.89821269e-04
      -1.79006893e-03 -4.22870927e-03 -5.31098514e-04 -1.78346294e-03
      -4.21663048e-03 1.64015612e-04 2.22774269e-03 2.11017113e-03
      3.90645256e-03 -2.17001513e-03 -5.65366726e-03 -7.65620731e-03
      -6.38529845e-03 -4.51901369e-03 -1.28181803e-03 3.41611542e-03
      5.31158783e-03 6.56415801e-03 3.81236360e-03 2.06907702e-04
      -2.88358214e-03 -7.69992359e-03 -2.43361155e-03 -1.39946013e-03
      -1.06665841e-03 5.06118289e-04 3.82622704e-03 7.41403433e-04
      -1.24750799e-03 -6.17079064e-03 -5.77274198e-03 -8.08616634e-03
      -2.46816431e-03 1.54461293e-03 6.71930658e-03 8.15961324e-03
      7.29724206e-03 2.96677789e-03 5.49905526e-04 -3.59357521e-03
      -5.76970680e-03 -2.78966455e-03 1.19578943e-03 2.50645308e-03
      4.70070774e-03 4.04301891e-03 1.98237319e-03 -1.86464470e-03
      -7.80102564e-03 -5.10194525e-03 -7.69710983e-04 2.55224621e-03
      3.83814191e-03 1.25200290e-03 1.93490309e-03 1.28822855e-03
      -1.29185396e-03 -5.16270893e-03 -5.59666660e-03 -4.37310711e-03
      1.32412373e-04 3.93536687e-03 4.72827954e-03 4.75674728e-03
      2.01006304e-03 7.66848738e-04 -1.82719855e-03 -2.72271200e-03
      -2.16959743e-03 4.75491135e-04 1.74562982e-03 -1.99527698e-04
      2.70921038e-04 8.95972422e-04 7.36361486e-04 -6.21983723e-04
      -4.51348303e-03 -3.15327477e-03 -1.14906044e-03 1.76049699e-03
      2.76555098e-03 1.25507440e-03 6.71724614e-04 -5.09011152e-04
      -1.98398763e-03 -1.53287419e-03 -3.69740534e-03 -4.12608590e-03
      -4.41015960e-04 1.68708910e-03 4.31174925e-03 2.90132128e-03
      -1.22723752e-03 -2.17132224e-03 -3.55992327e-03 -2.71031912e-03
      -8.66595597e-04 9.64162580e-04 9.46533924e-04 2.12531257e-03
      1.43300160e-03 1.03604817e-03 -1.95306915e-04 -3.10485251e-03
      -2.47770711e-03 -3.00847320e-03 -2.73851561e-04 1.32387085e-03
      4.45782905e-03 2.16399296e-03 -8.56242783e-04 -2.55256309e-03
      1.42411934e-03 -1.19637710e-03 -1.66478788e-03 -6.94499409e-04
      -1.65652437e-03 2.75287498e-03 2.23125052e-03 -1.10008253e-03
      -2.38735601e-03 -2.17674254e-03 -3.17345560e-03 -2.19571590e-03
      -4.81931213e-03 -3.72259784e-03 1.02661405e-04 3.03093763e-03
      1.51111733e-03 1.16028707e-03 2.37774715e-04 -1.74302724e-03
      -2.84553645e-03 -1.68651703e-03 -3.70492321e-03 1.12879032e-03
      9.29592003e-04 -2.00134036e-05 -4.79400594e-04 3.92317772e-03
      7.25083693e-04 1.00328261e-03 -3.60210170e-03 -3.89348390e-03
      -1.77099521e-03 7.28737738e-04 7.09369895e-04 4.55971248e-03
      -4.26085945e-03 -4.51805675e-03 -2.60917959e-03 -2.85692047e-03
      -8.18599656e-04 5.17518260e-04 -3.00492567e-04 1.48389407e-03
      -2.43091315e-04 -7.34189991e-04 -2.26216693e-03 -1.69112114e-03
      6.92961039e-04 1.90566317e-03 3.35452030e-03 8.78501392e-04
      3.80880013e-03 1.37909118e-03 2.98885047e-03 -9.45222913e-04
      8.70911346e-04 -1.72030472e-03 -2.00935733e-03 -1.07883255e-03
      -5.05880360e-03 -3.38246371e-03 2.23232084e-03 4.49724961e-03
      -4.97406058e-04 -7.93459709e-04 -1.57494156e-03 -1.68689049e-03
      -3.24123597e-04 -7.56153278e-03 -6.90239656e-04 1.22347579e-03
      -3.68753634e-03 -1.98157202e-03 -1.02527416e-03 -6.29640068e-04
      1.99299399e-03 1.20634865e-03 -2.69115507e-03 1.90726446e-03
      1.16509583e-03 -5.74290100e-03 1.46167108e-03 3.11633153e-03
      8.15730949e-04 1.89788209e-03 -1.32473395e-03 -4.37997701e-03
      -1.90694642e-03 -3.49567318e-03 -6.11379917e-04 -1.56734692e-04
      3.62847146e-04 -2.40126206e-03 -1.15153682e-03 -1.58144219e-03
      -6.83445623e-03 -3.05744144e-03 -3.06557841e-03 -2.16214103e-03
      2.89732660e-03 3.31991189e-03 1.58374954e-03 4.52675100e-04
      -2.43357033e-03 -6.95512909e-03 -6.10707561e-03 -5.47456974e-03
      -7.83619285e-03 2.35371618e-03 6.03241473e-03 2.43982370e-03
      3.57117900e-03 4.70946543e-03 -1.89727099e-04 -4.71463567e-03
      -7.45547842e-03 -7.77365686e-03 4.58098511e-04 6.91180525e-04
      2.09536476e-04 4.42984747e-03 8.84313229e-03 5.39486436e-03
      -2.20398046e-03 -8.33620224e-03 -6.66081300e-03 3.18816607e-03
      4.00143350e-03 4.61364305e-03 4.02251584e-03 3.46247037e-03
      -8.57031991e-05 -5.75259561e-03 -7.35748652e-03 -5.60272299e-03
      2.39202380e-03 1.86552538e-03 5.52220386e-04 5.85438125e-03
      7.29288626e-03 2.68729264e-03 -4.18001506e-03 -7.94487447e-03
      -6.03308482e-03 -4.89714032e-04 1.04004354e-03 2.04106374e-03
      4.95271012e-03 8.17368925e-03 4.92915558e-03 1.06613326e-03
      -7.61976652e-03 -7.41241546e-03 -2.88448110e-03 9.99531825e-04
      9.60936886e-04 -1.31611931e-04 3.74801294e-03 6.30963966e-03
      4.03751107e-03 -7.13164778e-03 -5.16508613e-03 2.93994369e-03
      2.72474228e-03 1.52536668e-03 5.73118031e-03 8.13432503e-03
      3.14632524e-03 -3.29024740e-03 -7.53597822e-03 -5.35770738e-03
      1.92408171e-03 3.37838288e-03 1.97318662e-03 6.13791868e-04
      3.95762222e-03 3.57944914e-03 1.47524566e-04 -7.86091946e-03
      -5.75635908e-03 -3.14534456e-03 1.38217886e-03 -2.45047646e-04
      -4.35279158e-04 2.35809293e-03 6.81739952e-03 2.87471013e-03
      -5.12501458e-03 -5.53915370e-03 6.47003617e-05 9.17514786e-04
      1.94845174e-03 -2.10776320e-03 1.49317028e-03 2.83202413e-03
      2.01970921e-03 -4.96303057e-03 -5.76616032e-03 1.62153668e-03
      2.38558138e-03 3.45615600e-03 8.92324664e-04 2.96275783e-03
      5.82844811e-03 4.63540945e-03 -7.27978116e-03 -3.97222675e-03
      1.98643561e-03 1.32392719e-03 9.75786650e-04 -1.59302331e-03
      2.08070478e-03 7.71207968e-04 1.07135554e-03 -6.09636493e-03
      -9.56147502e-04 1.60246238e-03 8.02984054e-04 6.62763661e-04
      1.91347569e-03 -6.44424072e-05 1.01496908e-03 -2.68824631e-04
      -3.94924683e-03 -3.85388359e-03 -1.88195705e-03 1.98867579e-04
      2.31866818e-03 4.82903188e-03 9.24350985e-04 -3.05150496e-03
      -1.66081882e-03 -5.42772422e-03 -1.61870092e-03 2.69471598e-03
      7.74938031e-04 -6.16918143e-04 3.03185941e-03 1.43188809e-03
      1.67336653e-03 -7.39388168e-04 -4.44963807e-03 -3.73875443e-03
      -5.04803983e-03 -2.23850133e-03 1.16985419e-03 5.53997187e-03
      4.23025759e-03 2.42343056e-03 -5.12812439e-05 -6.23709895e-03
      -5.76238800e-03 -2.04130518e-03 -9.99456388e-04 2.29561250e-04
      2.35932576e-03 1.75607624e-04 -2.78969039e-03 -9.84102604e-04
      -5.13954554e-03 -1.38812710e-03 -1.92822202e-03 -1.58154545e-03
      -1.11183050e-04 2.78909371e-04 2.34133448e-03 1.02026353e-03
      -8.86369846e-04 -1.13221502e-03 -5.86632127e-03 -4.45479527e-03
      -1.04020885e-03 9.19656653e-04 2.31348420e-03 1.79648888e-03
      -8.49794378e-05 1.66645239e-03 -2.51066405e-03 -3.84667586e-03
      -6.31823484e-03 -1.24728866e-03 -4.04554376e-05 1.36978657e-03
      2.58751912e-03 1.09447283e-03 1.63357251e-03 -2.35360535e-03
      -1.12109876e-03 -1.56017742e-03 -1.21748284e-03 1.45903614e-03
      2.12404621e-03 -4.70957311e-04 -3.44643544e-04 -9.35843622e-04
      -1.04472914e-04 -2.14403169e-03 -2.18340079e-03 -2.22335686e-03
      1.36073286e-04 2.90070637e-03 -1.02555740e-03 1.14296097e-03
      3.95485549e-04 -1.12163369e-03 -3.22797918e-03 -6.72249729e-03
      -3.16386088e-03 1.40261441e-03 1.07886759e-03 -2.73093519e-06
      -2.52197264e-03 -5.71413781e-04 -2.89633637e-03 -2.35421397e-03
      -8.89493991e-03 -5.93476230e-03 -2.98426719e-03 1.00972108e-03
      -1.72711420e-03 -2.40160874e-03 4.16239985e-04 -3.03249195e-04
      6.19338965e-03 -1.37484458e-03 -2.52247835e-03 -2.02484732e-03
      -5.51634142e-03 -5.81545476e-03 -6.26065070e-03 -2.68320856e-03
      2.28948402e-03 3.99449142e-03 1.79891428e-03 2.69242999e-04
      2.18543646e-05 -3.05224373e-03 -3.22565460e-03 -4.94274637e-03
      -1.94187218e-03 5.42297552e-04 9.72896442e-03 8.05445190e-04
      -4.85730544e-03 -6.22774707e-03 -6.54185144e-03 -4.44878824e-03
      -1.73781125e-03 -2.11516581e-03 7.20153470e-03 3.22882738e-03
      1.39240979e-03 -2.73806392e-04 -7.74896296e-04 -2.91459518e-03
      -4.82011557e-04 -2.24865996e-03 -2.16938835e-03 3.51632945e-03
      1.39685522e-04 6.14433957e-04 7.75179884e-04 8.23487295e-04
      -2.19487771e-03 -1.78991095e-03 -3.74891004e-03 -4.48466651e-03
      -6.79049845e-05 -9.48959962e-04 2.26133736e-03 9.35143966e-04
      -1.00489496e-03 -1.17500569e-03 -2.56270031e-03 -1.27283973e-03
      1.11413116e-04 1.15052820e-03 -1.43429695e-03 -7.27527193e-04
      -1.77041220e-03 -5.98204206e-04 -2.68028397e-03 -2.03989004e-03
      -2.12159567e-03 -3.85117787e-03 1.32201449e-03 6.15834579e-05
      1.41890033e-03 -9.30928072e-05 -1.04077172e-03 -2.17184046e-04
      4.77619942e-05 6.92589616e-04 7.97493340e-05 3.25760315e-03
      -1.64930418e-03 -2.69348180e-04 -5.47030475e-04 -3.91528057e-03
      -5.82701014e-03 -4.38409857e-03 -1.72664144e-03 1.91384915e-03
      4.28844802e-03 4.17746603e-03 -6.19150524e-04 -1.19905267e-03
      -3.04805092e-03 -4.63648932e-03 -2.46693916e-03 -2.39462615e-03
      2.14741356e-03 2.91636633e-03 1.59129268e-03 3.92130314e-04
      9.24171298e-04 -1.55164942e-03 -4.72649978e-03 -2.20562750e-03
      1.70930798e-04 3.19883693e-03 7.32954964e-03 2.62731942e-03
      -2.40590423e-03 -2.19532335e-03 -4.33203578e-03 -8.70187953e-03
      -3.56614334e-03 -3.02738068e-03 1.89246179e-03 4.43095108e-03
      -3.02180386e-04 -2.03845813e-03 -2.27660406e-03 -3.20580439e-03
      -2.38167308e-03 9.23229498e-04 -2.66815303e-04 -2.74527515e-03
      -2.27632024e-03 -5.85502200e-03 -5.55093447e-03 -2.43188668e-04
      5.00024343e-03 1.97690260e-03 3.88107914e-03 4.05872008e-03
      -1.98537437e-03 -1.24767097e-03 4.75564535e-04 -6.59714919e-03
      -5.03023108e-03 -5.80239529e-03 -6.32223487e-03 -2.52135191e-03
      -3.50435684e-03 -2.02067243e-03 4.03778657e-04 1.98037154e-03
      -4.43389360e-03 -4.91319131e-03 -1.61700672e-03 -3.35106812e-03
      -9.45345848e-04 1.80047273e-03 4.50019725e-03 1.81638100e-03
      -3.85171594e-03 -5.42701222e-03 -2.93670129e-03 2.78900820e-03
      5.47896721e-04 -8.07203120e-04 -2.30072369e-03 -1.62640854e-03
      5.01707837e-04 -2.76667974e-03 -6.89361338e-03 -4.71559120e-03
      -1.22151000e-03 -3.20774876e-03 -2.86009023e-03 -2.52516661e-03
      1.43776333e-03 2.79666507e-03 -4.03539091e-03 -3.92780267e-03
      -8.72656005e-04 1.63762714e-03 -3.55815445e-03 -1.41649018e-03
      -8.07841425e-04 3.56617081e-03 1.86478312e-03 -4.84564924e-04
      -7.75443064e-03 -5.58427535e-03 -1.26202300e-03 -3.58688924e-03
      -3.17807891e-03 -2.12622879e-04 9.83967038e-05 2.78679421e-03
      -1.25066726e-03 -7.50241661e-03 -5.84902614e-03 -4.64666076e-03
      -4.53404710e-03 -2.17922125e-03 -4.85535245e-04 2.40668096e-03
      3.25182430e-03 -3.04920279e-04 -7.50608137e-03 -5.49994595e-03
      -5.40728495e-03 -3.62242199e-03 -8.82527267e-04 -1.33228558e-03
      -7.85568613e-04 3.43596959e-03 3.53609817e-03 -7.11300084e-03
      -5.95983583e-03 -2.54874071e-03 -3.63730756e-03 -4.35373839e-03
      -8.49197211e-04 1.58722803e-03 5.29275881e-03 4.32361849e-03
      -7.24304188e-03 -7.29360571e-03 -6.65285345e-03 -3.38082155e-03
      -3.66016640e-03 -1.90922618e-03 1.11138809e-03 6.06087083e-03
      4.86115133e-03 -6.21175393e-03 -4.31580842e-03 -4.67296364e-03
      -6.24601776e-03 -1.41243183e-03 -1.40236912e-03 9.73647169e-04
      7.85165001e-03 8.34555458e-03 -2.61624064e-03 -1.61852292e-03
      -5.58960903e-03 -5.61537128e-03 -3.05208727e-03 -3.02385818e-03
      -1.53987890e-03 6.46318821e-03 3.04467254e-03 -4.79057897e-03
      -6.18682988e-03 -6.51132269e-03 -6.61225477e-03 -2.21213023e-03
      -9.36104974e-04 2.38598720e-03 5.00406884e-03 7.10000936e-03
      -1.76009885e-03 -5.57312649e-03 -4.30092402e-03 -7.01908628e-03
      -6.15184382e-03 -2.37480877e-03 -5.64300026e-05 6.19508000e-03
      8.06977600e-03 -3.32255848e-03 -8.86027818e-04 -2.98952730e-03
      -3.25434189e-03 -9.94401751e-04 -5.78206638e-03 -5.69177279e-03
      6.37344224e-03 4.11396986e-03 -2.17834394e-03 -3.56272841e-03
      -4.49718675e-03 -4.12844028e-03 -1.27622078e-03 -9.09341779e-03
      -8.39921180e-03 1.85308792e-03 5.94380591e-03 -3.95047432e-03
      -4.41020681e-03 -2.14724708e-03 -5.64154191e-03 -4.11411701e-03
      -3.41016194e-03 -3.15941079e-03 4.51828353e-03 6.18752604e-03
      -3.40098748e-03 -7.67829455e-03 -6.52491162e-03 -6.44019106e-03
      -2.76190182e-03 -3.68602364e-03 -4.65840846e-03 4.26813355e-03
      3.42822913e-03 2.67161196e-03 -8.47037067e-04 -2.78372667e-03
      -2.74152006e-03 -2.34801858e-03 -6.20516948e-03 -7.00777164e-03
      -1.02228462e-03 1.04624988e-03 3.62495333e-03 8.25644529e-04
      1.99204427e-03 -1.72218366e-03 -4.39051259e-03 -5.17770555e-03
      -5.87612251e-03 -3.04174796e-03 6.34070486e-03 3.55887634e-04
      -4.69946163e-03 -6.30878517e-03 -6.37977058e-03 -6.28262898e-03
      -5.79840550e-03 -7.34804105e-03 3.22020683e-03 2.61442224e-03
      2.84331129e-03 -2.71750498e-03 -3.18753929e-03 -9.38495528e-03
      -5.21935336e-03 -6.34208508e-03 -6.86478289e-03 -6.08555274e-03
      -3.15697584e-03 2.44210800e-03 2.80182436e-03 4.47156793e-03
      2.29378836e-03 -1.95315370e-04 -9.36574943e-04 -3.19061801e-03
      -5.16973576e-03 -2.46639666e-03 3.52085009e-03 7.94848020e-04
      7.56513677e-04 1.21256022e-03 3.03376745e-03 7.14280817e-04
      -2.28229188e-03 -3.04001151e-03 -9.44691361e-04 3.05014243e-03
      1.76134042e-03 -3.03766632e-04 -4.76749055e-03 -3.75039410e-03
      -3.68732237e-03 -2.80263135e-03 -8.74311570e-03 2.77180760e-03
      4.19566128e-03 1.06444210e-03 -3.01528536e-03 -1.92737521e-03
      -4.23169695e-03 -3.40692024e-03 -4.61701956e-03 -4.86974325e-03
      7.40502495e-04 9.59157664e-03 4.58499370e-03 4.56815251e-05
      1.43187260e-03 4.16518096e-03 1.25205831e-03 -2.12472654e-03
      -8.01527931e-04 1.08017448e-05 8.36914126e-03 6.01435918e-03
      1.64073857e-03 -3.97161208e-03 -3.72636947e-03 -1.04313635e-03
      -1.05031289e-03 -2.94416095e-03 6.66890619e-03 6.61608297e-03
      2.13890173e-03 -3.46047874e-03 -3.78938369e-03 -4.96382732e-03
      -3.18934349e-03 -5.44262398e-03 -1.05339347e-03 4.19020094e-03
      5.39475726e-03 1.01869320e-03 -2.11502193e-03 -1.31742693e-02
      -1.02585834e-02 -7.19418051e-03 -5.97944669e-03 -3.97196459e-03
      -2.03873089e-04 4.39894013e-03 6.63465401e-03 2.99892155e-03
      -3.83599685e-03 -2.47906451e-03 -1.41117303e-03 1.28340721e-03
      -1.90144102e-03 -4.09102213e-04 3.53000429e-03 3.39226588e-03
      4.58274590e-04 -3.21615953e-03 -8.12788145e-04 -2.16132356e-03
      1.23018792e-04 3.96821561e-04 3.79291363e-03 5.07085491e-03
      -9.03629931e-04 -1.65503076e-03 -9.09856707e-03 -9.76257678e-03
      -7.30533851e-03 -3.56745883e-03 -1.36998424e-03 1.80757907e-03
      1.33768853e-03 1.40656877e-04 -4.16752975e-03 -6.51708012e-03
      -7.33865611e-03 -4.56068246e-03 -1.88381528e-03 1.09431578e-03
      -2.83592334e-03 6.64508203e-04 8.59136460e-04 -1.51724613e-03
      1.23291439e-03 1.28123595e-03 1.16078602e-03 1.85879541e-03
      6.86899002e-04 -2.82553141e-03 -5.15468558e-03 -1.29118306e-03
      8.97981226e-04 2.92349700e-03 4.42193914e-03 2.95347976e-03
      1.63626415e-03 4.65518737e-04 -7.14114693e-04 4.78895003e-04
      6.29671325e-04 -3.81318200e-03 -2.34254706e-03 -1.64364511e-03
      -1.24509772e-03 1.57970097e-03 -1.13226601e-03 9.52614413e-04
      2.06533866e-03 1.02412945e-03 6.19671773e-04 5.45554271e-04
      1.87076128e-03 -7.13204558e-04 -5.53073362e-04 -1.41909905e-03
      -1.98664772e-03 -4.52869618e-03 3.95921525e-04 2.49850680e-03
      -1.63786797e-04 1.36650598e-03 -1.60472433e-03 2.51795223e-04
      9.77897667e-04 -1.26732502e-03 -4.85181715e-03 -6.70479436e-04
      1.40127187e-04 2.41903996e-04 -7.48960185e-04 -8.65355541e-05
      2.71357340e-03 -8.11300590e-04 1.05051056e-03 -3.56882956e-05
      -2.82265339e-03 -1.45895174e-03 -4.02195612e-03 -3.25603667e-03
      -3.87867389e-04 1.34043815e-03 2.56677670e-03 -4.22812707e-04
      -3.59026785e-03 -5.48737915e-03 -5.17594349e-03 -3.47126788e-03
      -2.81436089e-03 1.72225619e-03 3.67806945e-03 2.18352689e-05
      9.71853326e-04 -5.00831241e-03 8.01158021e-05 1.12290913e-03
      2.24958203e-04 -9.34088821e-05 1.02688209e-03 4.59412765e-03
      1.79299398e-03 -2.60384008e-03 -9.94936470e-03 -2.00916175e-03
      -7.52495020e-04 -2.77384708e-04 -5.92983968e-04 -1.30488083e-03
      2.57198908e-03 2.87644216e-03 -2.16383860e-03 -4.55413247e-03
      -3.77108529e-03 -2.92059383e-03 -2.48548947e-03 -7.98183086e-04
      2.76540406e-03 2.92643206e-03 1.36059476e-03 -2.61827791e-03
      -8.17979407e-03 -1.68152747e-03 -7.90079706e-04 -2.09480082e-03
      -7.69822334e-04 -1.10242527e-03 -1.46901933e-03 1.32985774e-03
      6.10770471e-03 1.27899169e-03 -1.62186404e-03 -2.66865594e-03
      -2.02990067e-03 -1.75244320e-04 2.67350022e-03 -1.44808856e-03
      2.98901927e-03 -9.41357459e-04 -4.18915908e-04 -1.34056783e-03
      1.39604916e-03 4.30974003e-04 3.65113677e-03 7.17462040e-04
      -1.36704766e-03 -1.65742484e-03 -1.99550227e-03 -5.58463996e-03
      -3.45748667e-05 2.67085939e-04 2.20810226e-03 3.48416460e-03
      1.60071591e-03 -3.36032733e-03 -8.60083790e-04 -4.32560313e-03
      -6.84414012e-03 -4.44603665e-03 2.37029325e-03 3.34977551e-04
      2.35334295e-03 -2.82293302e-03 -4.91990382e-03 -1.48064084e-03
      -3.50136193e-03 -3.12936516e-03 -4.03738441e-03 7.41013966e-04
      -1.09261612e-03 1.51399197e-03 4.04531282e-04 -4.74085682e-04
      -2.32799997e-04 -1.81602640e-03 -7.49618222e-04 2.52066566e-05
      1.39023038e-03 -2.13467772e-03 5.77841245e-04 2.86119478e-03
      1.95410103e-03 1.75519008e-03 -4.97678900e-03 -7.46148173e-03
      -6.45781960e-03 3.75774107e-04 -6.75649499e-04 7.07725820e-04
      -2.99680373e-03 -9.14275472e-04 -6.10059826e-04 -4.35090810e-03
      -3.87186185e-03 -1.31742132e-03 1.68631323e-05 -7.34304020e-04
      -1.63884298e-03 -5.39645494e-04 1.40779593e-03 -3.08262272e-04
      1.56022247e-03 -5.54098515e-04 6.88875152e-04 2.60094414e-04
      -3.47304950e-03 -2.56122486e-03 1.24543579e-03 3.46303242e-03
      4.14375309e-03 2.40611075e-03 -2.35463912e-03 -2.77732313e-03
      -3.56387370e-03 -4.71129315e-03 -2.45397072e-03 -2.90135061e-03
      8.27046984e-04 4.00216738e-03 -1.15548784e-03 -2.74899788e-03
      4.80278017e-04 1.50142622e-03 -1.69898092e-03 -3.33733484e-03
      -1.27342716e-03 -8.86505994e-04 -1.76758668e-03 -2.03428697e-03
      -4.78406763e-03 -1.79415080e-03 -2.47588754e-03 1.62446904e-05
      6.04985980e-04 1.52558682e-03 -3.64742242e-04 -6.34803029e-04
      3.95863038e-03 -5.52547863e-03 -6.75021112e-03 -4.66049463e-03
      -2.90235900e-03 -2.08574603e-03 1.25883351e-04 2.54958472e-03
      6.15091575e-03 4.32965299e-03 -4.40502120e-03 -7.66114099e-03
      -4.05517919e-03 -3.98288388e-03 -1.14361267e-03 3.23050795e-03
      8.61054473e-03 9.24140681e-03 -2.77837249e-03 -6.48374390e-03
      -5.70170721e-03 -3.56395193e-03 1.02749956e-03 8.22246948e-04
      3.29518225e-04 9.67129658e-04 -1.26103673e-03 -1.37524505e-03
      -6.80821668e-03 -7.96714146e-03 -3.61265708e-03 -7.98886933e-04
      1.13652815e-04 -2.78023508e-04 2.57821637e-03 1.82413415e-03
      -2.41187983e-03 -3.92249087e-03 -2.82799872e-03 -6.43910374e-04
      -3.09782079e-03 -1.30940374e-04 3.38807539e-03 7.60309491e-03
      3.91309708e-03 -1.62989809e-03 -4.21277573e-03 -1.57085829e-03
      1.56034285e-03 1.19887700e-03 -5.69297408e-04 4.62260190e-03
      2.63832742e-03 1.07076450e-03 -8.03412963e-03 -7.20470306e-03
      -4.04050341e-03 -4.98402573e-04 -4.43580444e-04 -1.09545153e-03
      -1.00253173e-03 -1.67861790e-03 -1.86210126e-03 -6.85954979e-03
      -7.71639217e-03 -2.25598691e-03 6.40007143e-04 5.84666450e-05
      -3.64195299e-03 -8.44133378e-04 -5.43381693e-03 -3.83834913e-03
      -2.84232810e-04 -5.98717481e-03 -1.75721652e-03 1.30584743e-03
      2.43155379e-03 -2.07857834e-03 2.02624849e-03 3.28126480e-03
      3.87205300e-03 -2.34709063e-04 -6.15454745e-03 -3.80336260e-03
      -2.68540840e-04 8.05381394e-04 -8.90486641e-04 1.26752013e-03
      5.43955481e-03 5.04210452e-03 -8.02832376e-03 -7.15561258e-03
      -2.16257060e-03 1.64775888e-03 1.62013317e-03 -2.18023686e-03
      -2.41058669e-03 -4.17249184e-03 -5.52028045e-03 -8.37962236e-03
      -6.79794839e-03 -4.16882662e-03 6.62402192e-04 9.32153838e-04
      1.61502766e-03 -1.18939695e-03 -1.99524825e-03 -4.61809151e-03
      1.52332638e-03 -3.46808182e-03 -3.40831978e-03 -2.80016311e-03
      -3.54805007e-03 -4.35412745e-04 1.47583254e-03 7.09932484e-03
      7.48820975e-03 6.44192705e-03 -4.83042910e-04 -4.45870822e-03
      -4.57624439e-03 -6.13534357e-03 -4.03928896e-03 7.39329262e-05
      2.86843115e-03 7.07439380e-03 -6.13884488e-03 -5.62120508e-03
      -4.00677789e-03 -6.22149266e-04 -2.21698266e-03 3.11983703e-03
      1.02071732e-03 9.35127391e-05 -2.14060652e-03 3.88532717e-05
      -4.55008028e-03 -5.58924209e-03 -5.12381317e-03 -3.33364145e-03
      -2.96094990e-03 -2.02368828e-03 -1.60165038e-03 1.09440752e-03
      7.73686636e-03 5.76418941e-04 -1.33979274e-03 -1.79872266e-03
      -6.87332684e-03 -4.75104572e-03 -1.75917614e-03 -1.12543137e-04
      8.32038186e-03 1.01494817e-02 -1.57053361e-03 -3.46475118e-03
      -4.41561593e-03 -8.05445760e-03 -5.20176301e-03 -2.41348427e-03
      4.14290589e-05 1.08219609e-02 2.07337478e-04 -3.96876130e-03
      -2.27208785e-03 -1.54957967e-03 -6.09581126e-03 -5.57169737e-03
      -4.34553158e-03 -4.08439245e-03 1.47405750e-04 3.86829558e-03
      -3.03116720e-03 -1.38480915e-03 -1.89258100e-03 -7.05176173e-03
      -6.94651343e-03 -5.06933313e-03 -4.09004558e-03 2.45435489e-03
      6.89715240e-03 1.24184194e-03 -3.53322225e-03 -5.31547656e-03
      -6.48885546e-03 -4.16054484e-03 -2.49632983e-03 -2.38344353e-03
      1.02054412e-02 5.75274974e-03 7.37609249e-03 -8.65022303e-04
      -6.03024429e-03 -6.35947380e-03 -1.72674796e-03 -3.94099485e-03
      -1.34149333e-03 3.73664359e-03 -7.95792032e-04 -1.76284555e-03
      -1.09337340e-03 -3.36253783e-03 -4.12149075e-03 -4.65067988e-03
      -3.90857598e-03 -2.74900696e-03 7.69544742e-04 -1.54414633e-03
      -5.29929472e-04 8.71667231e-04 -3.14036850e-03 -1.67240808e-03
      -2.40570912e-03 -3.52453929e-03 -9.67209708e-05 -1.88252027e-03
      2.47999560e-03 7.60735804e-03 1.51110021e-03 -2.66653090e-03
      -3.12650623e-03 -3.92018730e-04 -9.31741321e-04 -1.04483319e-04
      -3.09769716e-03 3.21842637e-03 5.76207554e-03 1.00487645e-03
      -1.97203085e-03 -8.21471680e-04 -2.88465992e-03 -2.71288725e-03
      1.11069542e-03 -6.54112722e-04 -6.18910091e-03 1.78337493e-03
      -2.06185403e-04 -1.63620082e-03 -1.90765073e-04 -1.51457905e-03
      1.25012535e-04 3.53095355e-03 -5.29449945e-03 -3.88543587e-03
      -9.92244110e-04 -1.71657861e-03 -3.68305994e-03 -1.00840419e-03
      -1.85853697e-03 9.45478503e-04 4.42240248e-03 -3.17727169e-03
      6.15488552e-03 6.19638385e-03 8.42596695e-04 -3.00150109e-03
      -1.47956086e-03 -2.42734468e-03 -2.70615332e-03 -7.02579680e-04
      2.60562496e-03 5.74957812e-03 2.91698310e-03 1.20722444e-03
      -3.69459344e-03 -6.14268566e-03 -8.18123110e-03 -6.33157184e-03
      -5.71491895e-03 1.49359158e-03 1.73410331e-03 5.33725193e-04
      1.16112502e-03 -3.74099961e-03 -3.18760227e-04 -1.17493712e-03
      -1.15518377e-03 -9.63188533e-04 4.03987797e-04 -2.73672253e-04
      -1.22515846e-03 1.53847301e-04 -6.20216830e-03 -8.28774297e-04
      -5.47450967e-03 -5.57714980e-03 -5.82442805e-03 -1.88759028e-03
      7.84871262e-03 1.86065875e-03 -4.72246262e-04 -3.16190813e-03
      -5.64669678e-03 -7.73821818e-03 -3.17043299e-03 -3.02251661e-03
      2.79104291e-03 6.11315062e-03 2.76700384e-03 2.05214694e-03
      -3.91038228e-03 -4.15858766e-03 -3.38250701e-03 1.72257086e-03
      2.70168122e-04 3.56849108e-04 -1.99993970e-04 -2.96325050e-03
      -3.27026588e-04 -4.53845505e-03 -2.71895481e-03 -7.30143022e-03
      -4.25153412e-03 -4.57475381e-03 9.45240899e-04 -1.47418131e-03
      -1.91885023e-03 -6.47669018e-04 -4.78562946e-03 -3.47337662e-03
      -3.83717078e-03 1.26956042e-03 -3.09992582e-03 -1.73126208e-03
      1.27012900e-03 1.15583220e-03 1.70569669e-03 -3.31403594e-03
      -5.68293442e-04 -1.41599053e-03 1.29687658e-03 1.00896403e-03
      -1.33200805e-03 3.53161455e-03 1.76725804e-03 5.18360815e-04
      -7.36879709e-04 4.90579696e-04 2.63379398e-03 3.01043806e-03
      2.37592962e-03 1.81267271e-03 -5.53050451e-03 -1.77782902e-03
      -1.32654933e-03 -2.97474326e-03 1.09726132e-03 -2.54262635e-03
      1.82684371e-03 -3.79456510e-03 -6.95728045e-03 -1.04027987e-03
      -2.73464277e-04 -8.99177976e-05 -1.11903471e-03 7.17485207e-04
      -6.43456646e-04 2.45770090e-03 -1.75872236e-03 -1.91520422e-03
      4.04485874e-03 -8.41976609e-04 -1.76232692e-03 -3.26343975e-03
      -3.81059432e-03 -6.04811590e-04 3.86792957e-03 4.22075111e-03
      4.94238408e-03 9.42206127e-04 -2.75576091e-03 -2.88951863e-03
      -6.55539706e-03 -2.72908108e-03 -6.78698940e-04 4.41655144e-03
      4.23951587e-03 3.72933515e-04 1.77072443e-03 5.78651379e-04
      3.90032837e-05 -2.18175980e-03 -2.95595411e-04 3.87978274e-04
      2.71879905e-03 -5.12900006e-04 9.35274642e-04 -2.75539467e-03
      -3.04449582e-03 -1.70680461e-03 -2.74336664e-03 -1.28672784e-03
      -8.59779364e-04 3.75295663e-03 1.01320259e-03 -1.20944344e-03
      -2.96477694e-03 -2.48649693e-03 -6.56790507e-04 -1.27499853e-03
      2.20555975e-03 2.51606177e-03 4.51164600e-03 4.64272825e-03
      -7.19141681e-04 -2.68362230e-03 -3.76838096e-03 -9.48076486e-04
      8.38145323e-04 4.40995069e-03 2.59283185e-03 1.25723181e-03
      -3.37996427e-03 -2.16265395e-03 -5.92964562e-03 -2.15121033e-03
      1.83253374e-03 1.06885086e-03 5.31254010e-03 2.96388520e-03
      5.93619049e-03 2.27224757e-03 -4.74604452e-03 -6.06643176e-03
      -4.43760026e-03 -7.48744176e-04 -7.84792705e-04 5.96327893e-03
      2.53727753e-03 3.62372282e-03 -3.86202056e-03 -6.99650729e-03
      -3.57436505e-03 -6.23399578e-03 1.14564318e-04 -1.73671509e-03
      8.19340465e-04 1.91732135e-03 4.07471182e-03 4.66732570e-04
      -3.72286042e-04 -4.23199264e-03 -8.36786255e-03 -2.66924314e-03
      1.03096897e-03 3.25348880e-03 2.55737593e-03 7.30145082e-04
      9.61487589e-04 3.17588943e-04 -6.82055391e-03 -1.13183660e-02
      -2.25651241e-03 -1.87909848e-03 3.51287774e-03 2.58336705e-03
      5.92222204e-03 5.27510536e-04 1.66888675e-03 -6.97368663e-03
      -9.76735167e-03 2.13337757e-04 3.37433303e-03 4.05256683e-03
      2.04409612e-03 -1.84822158e-04 -2.21185503e-03 -3.50476755e-03
      -2.90259137e-03 -3.58445663e-03 -3.08972737e-03 -2.96466151e-05
      3.37287155e-03 3.40095023e-03 1.37715309e-03 2.77937436e-03
      -8.76331876e-04 -2.67708721e-03 2.71988683e-04 -1.07559247e-03
      -1.45629980e-03 1.96736772e-03 -9.45618900e-04 2.08069105e-03
      2.25017872e-03 -1.01766338e-04 -6.08009007e-03 -5.30137494e-03
      1.21843524e-03 3.69928475e-03 5.61452983e-03 4.27213265e-03
      -1.82962103e-03 -4.17371513e-03 -3.47265159e-03 -5.74761583e-03
      -4.05917969e-03 2.34822743e-03 -3.27882648e-04 6.75076013e-03
      -4.04859515e-04 -3.55312577e-03 -3.11891153e-03 -2.34259688e-03
      -3.92817799e-03 -5.04610711e-04 -1.46198669e-04 -6.65926898e-04
      1.23128307e-03 -1.43031520e-03 1.47475372e-03 1.69046561e-03
      -3.49812931e-03 -4.62173019e-03 -2.76450836e-03 1.50374556e-03
      1.83604041e-03 5.66693535e-03 2.96015199e-03 3.42072337e-03
      1.97581714e-04 -4.13752813e-03 -6.70972606e-03 -6.03762968e-03
      -1.17420059e-04 5.74515361e-05 4.39555151e-03 -1.95019424e-03
      -2.83332483e-04 -5.36409381e-04 -4.09345562e-03 -4.78210254e-03
      -7.99708720e-03 5.95993130e-04 4.12846589e-03 5.17342240e-03
      3.45550873e-03 2.03358103e-03 -3.24551272e-03 -3.03896051e-03
      -3.69933504e-03 -4.11734683e-03 -3.12983757e-04 1.35135057e-03
      5.21718152e-03 3.40821804e-03 1.40193885e-03 -2.06438685e-03
      -3.93139943e-03 -3.13205016e-03 -1.87199668e-03 -2.27584643e-03
      2.00812495e-03 4.63510957e-03 3.12929926e-03 -9.62748658e-04
      -2.51626363e-03 -1.68710470e-03 -5.11779822e-03 -8.51114560e-03
      -4.99469286e-04 5.10243746e-03 6.13773521e-03 5.45339193e-03
      4.18683456e-04 -5.52388560e-03 -2.83473055e-03 -3.28137120e-03
      -4.47348179e-03 2.42963888e-05 5.13822213e-03 7.27090612e-03
      4.78324620e-03 -1.04023749e-03 -5.58046810e-03 -2.18014512e-03
      -4.07035463e-03 1.92200983e-04 1.31703884e-04 2.05647293e-03
      4.33408562e-03 1.42011745e-03 -2.39742268e-03 -2.01970083e-03
      -2.42689974e-03 -4.77086706e-03 -2.12895474e-03 -1.13889633e-03
      4.72767890e-04 1.05439487e-03 -1.78732874e-03 -3.55147407e-03
      -4.67782095e-03 -5.94276935e-03 -2.64043035e-03 -1.37308601e-03
      1.18480377e-04 2.87288567e-03 5.55607071e-03 2.07890291e-03
      -2.03663204e-03 -4.46862169e-03 -1.62515743e-03 -3.23424092e-03
      -3.64466500e-03 -1.71348650e-03 -1.26122264e-03 1.82399980e-03
      -8.44417256e-04 -4.71173460e-03 -6.41311659e-03 -1.57737045e-03
      -4.60768910e-03 -2.94500100e-03 -2.01178552e-03 1.20313501e-03
      2.64719338e-03 4.20861761e-04 -1.60211721e-03 -9.25748493e-04
      -3.77444248e-03 -6.83276355e-03 -4.45546955e-03 -2.15615961e-03
      3.69918509e-03 3.81157710e-03 2.87894602e-03 2.23216345e-03
      8.19629873e-04 -2.51597422e-03 -4.27861558e-03 -6.61866460e-03
      -4.83960658e-03 -2.62221787e-03 3.60889593e-03 8.48483003e-04
      -2.66934000e-03 -4.25707549e-03 -1.73593627e-03 -4.93533211e-03
      -7.07438681e-03 -4.27541090e-03 -1.70898833e-03 3.76133202e-03
      3.34944646e-03 -4.48186533e-04 -9.33526491e-04 -2.59409542e-03
      -4.80342796e-03 -4.61652363e-03 -1.62311853e-03 1.76325371e-03
      2.37898994e-03 3.66527098e-03 2.28235684e-03 -5.08188445e-04
      -9.31919378e-04 -1.49383920e-03 -3.38141923e-03 -3.34050413e-03
      8.69113777e-04 1.68901286e-03 1.47741963e-03 8.27625117e-05
      1.02199405e-03 2.77410290e-04 -5.86279808e-03 -6.96290936e-03
      -2.02224962e-03 -6.09462295e-05 3.97467427e-03 2.13585459e-04
      -2.92984094e-03 -7.39856681e-04 -2.94084591e-03 -1.37283513e-03
      -6.21172599e-03 -1.71051989e-03 -4.93761268e-04 5.00497455e-03
      -1.10846176e-03 -8.97021440e-04 -2.41463931e-04 -5.97611303e-04
      2.01123403e-05 -1.70029921e-03 -2.07890105e-03 1.24714000e-03
      7.03779922e-04 -7.95827727e-05 5.18896384e-04 3.15402611e-03
      -8.44031980e-04 9.15577111e-05 1.67094416e-03 1.38257141e-03
      7.05312414e-04 4.10862063e-04 -1.53195951e-03 -3.19159852e-04
      1.10347930e-03 -1.46939990e-03 -3.60926799e-03 -4.66817198e-03
      -1.97591190e-03 -5.84128102e-05 2.30804132e-03 -1.84196769e-03
      3.41843697e-03 2.02840054e-03 -1.31950155e-03 -4.56242263e-03
      -9.96921677e-04 1.34244107e-03 7.56173802e-04 2.18729372e-03
      -2.09411280e-03 1.21173519e-03 -2.38832217e-04 -1.76590227e-03
      -1.11277658e-03 2.44725239e-03 3.23266746e-03 2.02933647e-04
      2.38994067e-03 -3.72370618e-04 -5.16996370e-04 -6.86618092e-04
      -1.74552482e-03 -2.05313694e-03 6.20289589e-04 4.92285471e-03
      1.88338803e-03 6.36044331e-03 5.79186773e-04 -5.71799232e-04
      -8.15833919e-04 -3.45419138e-03 -5.09612029e-03 -2.30143487e-04
      3.24222376e-03 3.32017837e-04 5.52660413e-03 7.69738865e-04
      2.26638140e-03 -9.64620151e-04 -4.95556463e-03 -7.49850133e-03
      -3.21428315e-03 3.20441695e-03 4.09458065e-03 9.81726591e-03
      4.65599680e-03 3.24244052e-03 -3.35631869e-03 -7.88589101e-03
      -4.88732243e-03 -1.11597532e-03 2.60566175e-03 9.85692372e-04
      4.74015344e-03 -8.07126227e-04 2.39786087e-03 3.74079705e-03
      -4.59707808e-03 -3.61316209e-03 -5.60365675e-04 -1.57159800e-03
      -1.46818778e-03 2.16115639e-03 8.19530323e-05 4.18433500e-03
      4.39509982e-03 -2.66424404e-03 -5.40752197e-03 -3.85803962e-03
      2.99790641e-03 3.45695205e-03 8.62945803e-03 3.74860270e-03
      2.33310927e-03 -3.47603462e-03 -6.88199559e-03 -6.00736681e-03
      -2.51020561e-03 2.69352749e-04 -3.59358906e-04 5.63773187e-03
      2.69540865e-03 2.13625911e-03 5.92706550e-04 -4.66755265e-03
      -1.51290104e-03 1.05778035e-03 3.67594330e-04 -3.33805219e-03
      3.04784742e-03 9.96236340e-04 3.07485042e-03 -1.23644204e-04
      -1.59422914e-03 -4.24404815e-03 -2.69327289e-03 2.35984288e-03
      -2.05188850e-03 4.18544142e-03 -1.09128619e-03 -2.86873919e-03
      -3.98475258e-03 -1.19092176e-03 -5.48386388e-03 -3.64632392e-03
      -1.48016858e-04 -3.21303285e-03 4.65100352e-03 1.62829645e-03
      2.30445317e-03 6.83245831e-04 -5.03584091e-03 -6.07513729e-03
      -8.62281304e-03 -2.33352114e-03 -1.12612441e-03 6.06599171e-03
      3.65196750e-03 4.28284425e-03 1.82160374e-03 -1.92134862e-03
      -3.36905173e-03 -3.60758230e-03 -7.07531115e-04 -1.12813443e-03
      1.44057407e-03 -2.09266436e-03 -2.05034693e-03 -2.23809923e-03
      1.32609828e-04 -4.06906242e-03 -4.12241369e-03 -1.94333680e-03
      -2.28767446e-03 3.64432435e-06 -4.72212210e-04 1.82860636e-03
      -1.19188160e-03 -2.19131703e-03 -4.91174636e-03 -9.27830767e-03
      -3.94688733e-03 -1.37422536e-03 4.31631831e-03 4.89197811e-03
      4.10322612e-03 2.15793285e-03 -1.00380986e-03 -3.99833219e-03
      -8.72838032e-03 -3.69356386e-03 -1.96071970e-03 3.23266862e-03
      4.01532743e-03 3.68586951e-03 1.17210194e-03 -1.70981407e-03
      -6.68360898e-03 -3.28919431e-03 1.37987453e-03 3.13708122e-04
      4.32385271e-03 2.49886513e-03 4.59637027e-03 2.57348293e-04
      -6.56995364e-03 -4.20876220e-03 1.10985781e-03 4.13885340e-03
      2.16264604e-03 3.92333651e-03 2.23722938e-03 4.34216298e-03
      -1.19964872e-03 -2.95065786e-03 -7.48635642e-03 -5.56158554e-03
      -6.60369988e-04 2.67699710e-03 6.10823650e-03 4.11592983e-03
      3.78277060e-03 -1.27176475e-03 -7.32967071e-03 -5.40700974e-03
      -3.12410109e-03 7.32421991e-04 2.02170084e-03 6.10578200e-03
      6.43685274e-03 3.70702590e-03 -4.58971737e-03 -7.46182725e-03
      -5.89750416e-04 1.99194462e-03 3.07446066e-03 5.66613686e-04
      2.35858210e-03 3.03031434e-03 3.88193969e-03 -1.61790755e-03
      -8.39736313e-04 -4.51753708e-03 -2.15425272e-03 -2.95277918e-04
      8.33006401e-04 3.13201407e-03 3.48362350e-03 4.45936201e-03
      1.95964240e-04 -3.43083544e-03 -4.34208522e-03 -3.97528335e-03
      7.44791643e-04 -6.54157891e-04 4.63853916e-03 4.32563666e-03
      3.23340297e-03 -5.11161750e-03 -6.03124499e-03 -6.42681587e-03
      -9.23257973e-03 -2.19475036e-03 -8.52645200e-04 5.90091199e-03
      4.43614740e-03 2.24152952e-03 -3.05210077e-03 -6.99102925e-03
      -5.80602884e-03 -1.97343598e-03 2.33070017e-03 2.09887745e-03
      8.02563410e-03 3.11532780e-03 4.96301241e-03 1.28545612e-03
      -7.98470993e-03 -4.94591612e-03 -9.86256753e-04 4.49106039e-04
      -8.41164438e-04 6.96603954e-03 3.01023130e-03 3.61681008e-03
      -1.46501989e-03 -9.46136843e-03 -8.98338854e-03 -8.40914901e-03
      1.09965494e-03 1.75402721e-03 9.08549316e-03 3.71555984e-03
      4.03401209e-03 3.55506525e-03 -7.57167349e-03 -4.20312630e-03
      -5.69075951e-03 2.74979719e-03 9.38284327e-04 6.86283875e-03
      -9.38955811e-04 1.00846007e-03 8.31223559e-04 -4.31485521e-03</_></support_vectors>
  <uncompressed_sv_total>16</uncompressed_sv_total>
  <uncompressed_support_vectors>
    <_>
      1.94084570e-02 1.55690089e-01 3.57283533e-01 1.07981399e-01
      3.87575440e-02 5.94251230e-03 0. 0. 6.57776138e-03 2.48409866e-04
      1.56320542e-01 3.57283533e-01 3.57283533e-01 1.50977969e-01
      8.17704014e-03 0. 0. 0. 7.90811852e-02 2.97849149e-01
      3.57283533e-01 1.18877746e-01 0. 0. 0. 0. 2.77273078e-02
      1.29278451e-02 2.65388995e-01 3.57283533e-01 3.03368688e-01
      2.27595363e-02 9.12700780e-04 0. 0. 0. 8.19510128e-03
      5.15528321e-02 3.46011698e-01 3.46011698e-01 1.93875194e-01
      2.31510750e-03 1.02222322e-04 2.30680942e-03 3.82609025e-04
      4.80921119e-02 6.26890212e-02 3.33582759e-01 3.46011698e-01
      1.76033422e-01 1.30547779e-02 5.92134334e-03 1.20370276e-02
      4.18395456e-03 3.18452232e-02 1.33576721e-01 3.46011698e-01
      3.46011698e-01 1.21248975e-01 5.93933044e-03 4.43382515e-03
      1.16665978e-02 5.19105326e-03 2.04121724e-01 1.55372262e-01
      2.11224720e-01 2.32883573e-01 9.33775306e-02 1.15999747e-02
      1.16899190e-02 2.67315712e-02 2.41868664e-02 7.96184093e-02
      9.54530537e-02 1.52641103e-01 3.07393402e-01 3.07393402e-01
      4.20243852e-02 1.39124915e-02 2.47893613e-02 1.20105995e-02
      1.21585920e-01 6.02495894e-02 6.00465462e-02 3.07393402e-01
      3.07393402e-01 1.12428851e-01 5.51837124e-02 5.13799191e-02
      7.20330551e-02 3.07393402e-01 2.60984570e-01 1.21200114e-01
      1.35489941e-01 1.11690037e-01 2.74904296e-02 1.81973726e-02
      3.23899724e-02 9.42342877e-02 3.07393402e-01 2.48804152e-01
      7.56710991e-02 1.32450387e-01 2.20810294e-01 8.30186754e-02
      5.44305444e-02 5.95937744e-02 2.66451210e-01 2.25999817e-01
      8.55920464e-02 3.91258933e-02 1.28588408e-01 1.46266311e-01
      7.69009739e-02 8.58660042e-02 5.13607077e-02 6.24627620e-02
      3.55500042e-01 1.15117975e-01 4.65351455e-02 9.33457352e-03
      2.27974597e-02 6.91675544e-02 1.20599493e-01 7.21915662e-02
      4.76421155e-02 4.43140805e-01 2.82097429e-01 6.84724599e-02
      7.01055154e-02 7.37025067e-02 4.33122292e-02 3.12972963e-02
      3.20709869e-02 2.10472912e-01 4.43140805e-01 3.31962377e-01
      6.72554299e-02 4.62869257e-02 1.55087942e-02 1.75790209e-02
      1.31570194e-02 1.12866051e-02 2.35396460e-01 2.33308271e-01
      3.03869192e-02 1.45019824e-02 7.08976015e-03 1.99431926e-02
      4.43984792e-02 6.56329840e-02 7.73272589e-02 8.54147151e-02
      2.83851445e-01 1.53229423e-02 3.03417793e-03 1.91438710e-03
      1.17915245e-02 2.00379211e-02 2.89783068e-02 6.30692467e-02
      2.61259526e-01 4.72901732e-01 1.09978557e-01 1.48791494e-02
      7.01496238e-03 7.57435395e-04 5.28323790e-03 5.92800789e-03
      1.14871282e-02 2.83919603e-01 4.72901732e-01 3.30646746e-02
      7.51553453e-04 8.70176067e-04 1.45341968e-04 2.60580005e-03
      2.92389328e-03 9.19147674e-03 4.72901732e-01 2.32350051e-01
      1.67970750e-02 3.41455871e-03 0. 8.14235024e-03 1.12917088e-03
      3.53603368e-03 2.67203022e-02 2.80816108e-01 1.71608195e-01
      2.39359178e-02 1.04586193e-02 1.53833686e-03 1.63266733e-02
      4.04471904e-03 1.68462340e-02 8.34554210e-02 1.93646252e-01
      4.01036233e-01 7.99721573e-03 0. 0. 0. 1.19241842e-04
      4.44993610e-03 9.36099291e-02 4.01036233e-01 3.58151466e-01
      3.87863927e-02 6.20494224e-03 8.36052559e-03 3.70941404e-03
      1.26721589e-02 6.83426186e-02 4.01036233e-01 4.01036233e-01
      1.24358125e-01 3.95319127e-02 2.84491312e-02 9.88121238e-03
      3.56217436e-02 3.11089419e-02 4.36499193e-02 9.26666185e-02
      1.02611102e-01 2.98704565e-01 8.28581974e-02 2.20959559e-02
      1.23795513e-02 4.97160666e-02 5.03156669e-02 3.19348313e-02
      4.77179848e-02 2.46108294e-01 1.53402820e-01 1.30187288e-01
      8.19227099e-02 1.05564468e-01 1.28401384e-01 1.27389818e-01
      1.83301792e-01 2.98704565e-01 2.98704565e-01 2.98704565e-01
      2.98704565e-01 2.18351871e-01 2.14757949e-01 2.04974443e-01
      1.96761206e-01 1.25339866e-01 1.70910269e-01 2.98704565e-01
      3.70057315e-01 5.29341362e-02 5.98789426e-03 2.59631313e-03
      1.29333120e-02 8.10095388e-03 4.22664592e-03 7.26970471e-03
      1.82581723e-01 3.05032998e-01 5.49752899e-02 4.11425494e-02
      2.43252534e-02 1.25059476e-02 2.70957989e-03 2.11510574e-03
      4.89507131e-02 2.66910762e-01 3.70057315e-01 1.58814177e-01
      5.68201467e-02 4.02144417e-02 2.60297358e-02 3.70163843e-02
      2.20824331e-02 4.45090719e-02 3.70057315e-01 3.70057315e-01
      1.79566611e-02 3.99600202e-03 5.11950906e-03 1.76023529e-03
      4.08042222e-03 5.84563985e-03 2.60664672e-01 3.70057315e-01
      7.38275722e-02 2.40582954e-02 6.51756003e-02 5.48120178e-02
      2.91761886e-02 1.40885822e-02 5.17708883e-02 1.90741286e-01
      2.35274836e-01 4.10496909e-03 1.12671275e-02 7.07287788e-02
      8.04791376e-02 8.32826272e-02 6.05224296e-02 2.07112044e-01
      3.44298780e-01 8.67921263e-02 1.66099027e-01 5.02376957e-03
      9.02651751e-04 2.50762538e-03 2.99647194e-03 1.99592765e-02
      8.52081031e-02 3.44298780e-01 3.44298780e-01 2.52944627e-03
      1.63461827e-02 2.67512761e-02 4.94451337e-02 1.15912415e-01
      2.64352143e-01 3.44298780e-01 3.44298780e-01 3.16879421e-01
      1.75119951e-01 4.94894199e-02 8.40212777e-02 7.66250044e-02
      1.03861921e-01 7.29641542e-02 1.77812219e-01 2.79179186e-01
      1.67070538e-01 2.79179186e-01 1.55999407e-01 5.08517064e-02
      2.30713654e-02 3.15077081e-02 2.28976253e-02 3.46423797e-02
      1.21332183e-01 2.54478097e-01 1.39516503e-01 1.12763427e-01
      1.08929165e-01 1.56309634e-01 2.66320556e-01 2.79179186e-01
      2.79179186e-01 2.77799636e-01 1.24911301e-01 2.79179186e-01
      1.52116209e-01 8.24876279e-02 8.75143185e-02 1.08288907e-01
      6.54342175e-02 6.15702830e-02 9.29632857e-02 2.79179186e-01
      2.99193293e-01 2.57983446e-01 5.67716397e-02 5.66664375e-02
      4.55727428e-02 3.59355216e-03 9.54037067e-03 1.63640175e-02
      9.87987518e-02 2.99193293e-01 2.32998163e-01 7.85846561e-02
      1.32061869e-01 2.44700581e-01 4.90227938e-02 6.53353184e-02
      1.64788783e-01 1.39744237e-01 2.99193293e-01 2.00305045e-01
      4.83908989e-02 2.70963702e-02 3.15827206e-02 1.58195421e-02
      1.87940896e-02 4.23225239e-02 2.65289187e-01 2.99193293e-01
      2.99128532e-01 4.74462397e-02 4.73443232e-02 6.98736459e-02
      5.29167913e-02 8.49025995e-02 2.17392683e-01 2.99193293e-01
      8.43229666e-02 3.16009149e-02 1.94003377e-02 6.92003220e-02
      2.39559755e-01 9.82643887e-02 2.15627179e-01 2.39559755e-01
      8.23668465e-02 2.05104649e-02 6.62176013e-02 1.78749725e-01
      2.30269596e-01 2.39559755e-01 1.64399952e-01 2.39559755e-01
      2.39559755e-01 1.03430562e-02 2.39559755e-01 1.21578105e-01
      2.18346827e-02 4.22988459e-02 8.25541019e-02 8.47841203e-02
      2.39559755e-01 2.39559755e-01 2.04199508e-01 1.21136852e-01
      1.60605341e-01 2.39559755e-01 1.97301894e-01 7.97397718e-02
      1.16715819e-01 2.39559755e-01 2.39559755e-01 3.28359865e-02
      1.51413139e-02 7.11487457e-02 2.70555496e-01 2.70555496e-01
      2.70555496e-01 1.95671082e-01 9.05983001e-02 7.09049553e-02
      3.25710792e-03 2.34534428e-03 7.07503855e-02 2.58601815e-01
      2.70555496e-01 1.75389692e-01 1.33279160e-01 1.74486071e-01
      1.66064590e-01 2.84256483e-03 6.11183643e-02 1.39670253e-01
      2.70555496e-01 2.70555496e-01 1.60806805e-01 5.88710681e-02
      9.57840309e-02 7.77503103e-02 1.61436051e-02 2.14324449e-03
      7.07373917e-02 2.70555496e-01 2.70555496e-01 2.70555496e-01
      1.14569940e-01 8.77076238e-02 9.57720652e-02 1.34006962e-02
      3.89452092e-02 8.91465321e-02 1.91287577e-01 1.60996184e-01
      7.78136849e-02 7.42832795e-02 2.60921776e-01 2.60921776e-01
      1.67922284e-02 1.59772769e-01 1.05344117e-01 6.28554523e-02
      6.06036298e-02 8.19205195e-02 3.53409424e-02 2.60921776e-01
      2.60921776e-01 1.00024350e-01 1.33710191e-01 1.99156195e-01
      2.60921776e-01 2.60921776e-01 2.60921776e-01 1.36205599e-01
      1.70195118e-01 1.31559879e-01 1.48587506e-02 2.60921776e-01
      2.60921776e-01 1.57557756e-01 1.32593751e-01 1.72816008e-01
      4.12684865e-02 1.52274996e-01 1.21485032e-01 6.41819164e-02
      9.50151011e-02 6.25643656e-02 6.90283999e-02 2.08134741e-01
      1.20528392e-01 4.50407490e-02 1.96319774e-01 1.86124429e-01
      1.28619716e-01 8.14258605e-02 7.34525323e-02 2.27441952e-01
      2.72295982e-01 1.35900781e-01 5.70282415e-02 1.72512606e-01
      2.23706111e-01 1.38323531e-01 2.72295982e-01 1.40352741e-01
      3.80414091e-02 1.23095393e-01 1.03131272e-01 3.72721031e-02
      2.21160725e-01 2.72295982e-01 1.21572085e-01 1.41025618e-01
      3.62256728e-02 7.30773881e-02 2.09388465e-01 1.22934081e-01
      6.64721876e-02 2.69995272e-01 2.72295982e-01 2.72295982e-01
      2.61348486e-01 3.42418820e-01 3.42418820e-01 4.74326275e-02 0. 0.
      0. 0. 7.26637915e-02 9.98742357e-02 3.42418820e-01 3.42418820e-01
      1.12328082e-01 1.58302523e-02 1.99642847e-03 1.30339424e-04
      1.23184687e-03 1.08767021e-03 3.23157430e-01 3.42418820e-01
      1.60151199e-01 4.17006668e-03 1.11846877e-02 6.17572572e-03
      1.39961960e-02 1.56979859e-02 8.38103741e-02 1.48497775e-01
      3.42418820e-01 1.78219303e-01 1.37107065e-02 4.22049826e-03
      1.17283606e-03 8.97126086e-03 2.32458990e-02 4.49902862e-02
      1.41040474e-01 2.73612410e-01 2.73612410e-01 2.73612410e-01
      1.28690019e-01 2.57345140e-02 1.38837229e-02 2.05380376e-02
      1.21044619e-02 2.57421553e-01 2.73612410e-01 2.73612410e-01
      1.89084023e-01 1.03953585e-01 2.66843457e-02 1.82561260e-02
      2.68827435e-02 3.78458984e-02 2.19699234e-01 2.73612410e-01
      1.67602211e-01 5.93068451e-02 8.93444642e-02 8.98967236e-02
      3.33875753e-02 6.19934611e-02 7.00517595e-02 7.19865188e-02
      1.74839452e-01 2.73612410e-01 2.73612410e-01 2.73612410e-01
      1.53762221e-01 3.80442739e-02 4.55240197e-02 2.95246076e-02
      2.69104123e-01 2.38531262e-01 1.85329050e-01 4.88092415e-02
      1.11094369e-02 4.23643924e-03 4.32706671e-03 1.27977282e-02
      1.45108119e-01 2.69104123e-01 2.35561177e-01 1.45139977e-01
      1.17421120e-01 5.06591238e-02 7.08921347e-03 7.45020201e-03
      1.37450946e-02 2.69104123e-01 2.54954457e-01 1.71204284e-01
      2.69104123e-01 2.48208702e-01 1.50209993e-01 3.14560570e-02
      5.05606225e-03 6.15159236e-03 1.04187585e-01 2.69104123e-01
      2.63033062e-01 2.69104123e-01 2.12349981e-01 5.30845001e-02
      2.87706256e-02 1.36618009e-02 1.01049244e-02 2.14462131e-01
      2.74537057e-01 1.95218220e-01 1.68814391e-01 1.64346516e-01
      6.58781230e-02 2.23459378e-02 3.47231841e-03 4.06799465e-03
      8.15994814e-02 2.74537057e-01 2.74537057e-01 1.63069218e-01
      1.53504223e-01 9.80324373e-02 6.10905774e-02 2.30899993e-02
      9.33194980e-02 1.35667413e-01 9.65032354e-02 1.36966199e-01
      2.74537057e-01 2.74537057e-01 1.16546109e-01 6.49672151e-02
      1.02520995e-02 5.37299085e-03 3.40501145e-02 1.33575439e-01
      2.05508932e-01 2.74537057e-01 2.65564203e-01 2.08071530e-01
      1.30151391e-01 5.97099848e-02 2.74537057e-01 1.78337097e-01
      3.64602596e-01 9.54247639e-02 2.51681264e-02 4.62812148e-02
      3.53928730e-02 1.12907095e-02 9.21995565e-03 8.12307447e-02
      1.93795979e-01 3.64602596e-01 3.42749543e-02 1.36343502e-02
      2.92329062e-02 7.64986221e-03 1.91966581e-04 9.26629058e-04
      4.00050357e-02 3.64602596e-01 2.29568616e-01 7.62253627e-02
      3.71520780e-02 6.52406365e-02 5.55802807e-02 2.07211971e-02
      2.37520617e-02 2.33172432e-01 3.64602596e-01 3.64602596e-01
      4.04230133e-02 2.18592286e-02 3.88596281e-02 9.90483351e-03
      3.13549390e-04 2.36176047e-03 1.05089203e-01 3.64602596e-01
      3.33978981e-01 4.54659294e-03 2.24285852e-03 1.44195370e-03 0. 0.
      5.90693159e-03 4.29339930e-02 3.33978981e-01 3.33978981e-01
      3.75081003e-02 5.22016548e-03 8.29256885e-03 2.22300133e-03
      5.84992208e-03 4.76022512e-02 1.72689512e-01 3.33978981e-01
      3.33978981e-01 1.48461303e-02 4.52725356e-03 2.63665849e-03
      9.71314294e-05 1.14709255e-03 8.64784047e-03 5.89481033e-02
      3.33978981e-01 3.33978981e-01 2.20585633e-02 4.54632007e-03
      5.72684919e-03 2.03555124e-03 1.54263219e-02 7.09020644e-02
      2.43276581e-01 3.33978981e-01 1.93082750e-01 8.24796110e-02
      4.56801541e-02 1.00830957e-01 1.14307687e-01 9.20805633e-02
      1.14600524e-01 2.10947469e-01 2.41905525e-01 1.81366235e-01
      1.38479263e-01 1.46891266e-01 1.91387564e-01 1.99205309e-01
      2.09125400e-01 1.28040954e-01 1.19506404e-01 7.26208612e-02
      2.08762795e-01 4.04074974e-02 2.40982659e-02 6.53679445e-02
      1.28116652e-01 2.41905525e-01 2.41905525e-01 2.41905525e-01
      2.41905525e-01 2.55923532e-02 2.55908165e-02 1.89091712e-01
      2.28832468e-01 2.41905525e-01 2.41905525e-01 2.24280298e-01
      1.22286499e-01 4.03653122e-02 2.67384470e-01 1.09239943e-01
      1.33155733e-01 1.16373338e-01 9.69242826e-02 1.37491152e-01
      8.81527215e-02 1.31441861e-01 2.35399351e-01 2.67384470e-01
      3.41793559e-02 3.44978571e-02 9.16637182e-02 7.78840333e-02
      5.11352234e-02 4.64476310e-02 2.47333556e-01 2.67384470e-01
      4.69236076e-02 3.19180079e-02 2.67384470e-01 2.67384470e-01
      2.67384470e-01 2.28159264e-01 8.98926333e-02 1.13617845e-01
      6.85461834e-02 1.05446316e-01 4.90682460e-02 2.25243598e-01
      2.16715485e-01 1.78065687e-01 1.06825702e-01 1.06877163e-01
      1.73551813e-01 2.38261789e-01 6.48543388e-02 8.57163873e-03
      2.95989728e-03 3.56552899e-02 5.16055338e-02 6.91134706e-02
      1.03690661e-01 2.93331087e-01 2.93331087e-01 1.40696429e-04
      2.76209135e-03 6.49064314e-03 3.83087285e-02 2.39310592e-01
      2.93331087e-01 2.93331087e-01 2.93331087e-01 1.54622912e-01
      4.53886203e-02 1.71029698e-02 2.47164629e-02 8.96157026e-02
      1.40005723e-01 1.49749190e-01 2.02837855e-01 2.46528074e-01
      1.32812232e-01 4.02795244e-03 1.85931008e-03 1.67637761e-03
      4.25428711e-02 2.93331087e-01 2.93331087e-01 2.93331087e-01
      1.65305987e-01 2.32327897e-02 4.32267450e-02 3.42430845e-02
      3.70654240e-02 1.49653360e-01 3.07014436e-01 3.07014436e-01
      2.71735400e-01 1.44576371e-01 4.91477735e-02 1.12869479e-01
      5.51729351e-02 4.79188859e-02 1.23594977e-01 1.48723111e-01
      1.14977747e-01 9.64864641e-02 1.02129497e-01 1.18012972e-01
      2.94293463e-02 1.20123830e-02 3.22378799e-02 1.49609163e-01
      3.07014436e-01 3.07014436e-01 3.07014436e-01 1.35127917e-01
      5.80286682e-02 7.53319189e-02 4.69299518e-02 6.02860525e-02
      1.69256434e-01 2.51256883e-01 2.72699058e-01 1.62197322e-01
      1.77440956e-01 1.33437961e-01 2.56688029e-01 1.23704858e-01
      1.43973172e-01 7.01759011e-02 9.91988704e-02 7.19804168e-02
      8.18661153e-02 1.39904574e-01 2.50612199e-01 2.59335816e-01
      2.15433642e-01 1.34902015e-01 4.47202325e-02 6.26496002e-02
      7.34723881e-02 9.49879736e-02 2.26139098e-01 2.59335816e-01
      1.14685029e-01 9.01940167e-02 1.10750511e-01 1.33873045e-01
      1.82957217e-01 2.03990191e-01 1.35229185e-01 2.59335816e-01
      2.40591452e-01 1.47909999e-01 8.48422199e-02 8.79029334e-02
      4.73876782e-02 3.97312231e-02 1.78217620e-01 2.50302851e-01
      2.59335816e-01 2.08743319e-01 2.46161655e-01 2.21528560e-01
      6.28271550e-02 6.03507869e-02 9.42021161e-02 1.12439156e-01
      2.08819136e-01 2.46161655e-01 2.46161655e-01 2.46161655e-01
      2.46161655e-01 2.46161655e-01 1.85806036e-01 1.38208464e-01
      2.46161655e-01 2.46161655e-01 1.76364675e-01 8.52684304e-02
      1.48327276e-01 6.50250614e-02 3.77087258e-02 1.20848445e-02
      1.51182218e-02 6.15089200e-02 1.60064265e-01 2.46161655e-01
      2.46161655e-01 8.89194980e-02 6.96648136e-02 6.68614283e-02
      8.86790156e-02 1.11179478e-01 2.04232112e-01 7.29170665e-02
      1.06339380e-01 1.56769425e-01 6.67851195e-02 1.47599399e-01
      2.84137368e-01 2.61120260e-01 1.86426759e-01 2.43328527e-01
      1.14384785e-01 3.67367268e-02 2.24331468e-02 8.72904714e-03
      6.33145273e-02 2.41029158e-01 2.84137368e-01 2.84137368e-01
      2.35891879e-01 7.04370216e-02 1.98039934e-02 1.68583784e-02
      2.94220727e-02 6.82087168e-02 6.17263541e-02 1.19176812e-01
      1.22465059e-01 2.81974018e-01 1.70598552e-01 5.70657775e-02
      2.13420913e-02 3.25710513e-02 9.30520892e-02 7.23511279e-02
      2.84137368e-01 2.84137368e-01 2.24311814e-01 2.05155656e-01
      9.07791629e-02 1.56102246e-02 5.30821905e-02 6.85679242e-02
      1.34936169e-01 2.87977695e-01 2.87977695e-01 1.56922147e-01
      1.89425573e-02 4.12191730e-03 7.76900351e-03 2.50875026e-01
      1.19606495e-01 9.17362571e-02 1.33430645e-01 2.87977695e-01
      9.89957154e-02 2.14097481e-02 2.96906773e-02 4.24689390e-02
      8.44567548e-03 2.07199603e-02 2.26662848e-02 2.74663776e-01
      2.87977695e-01 2.60009348e-01 2.28398323e-01 1.29670918e-01
      1.50138112e-02 1.24938106e-02 1.64340734e-02 9.81937647e-02
      2.11602956e-01 2.87977695e-01 2.87977695e-01 2.32224450e-01
      9.56114009e-02 3.40846665e-02 2.07968429e-01 7.28408843e-02
      6.86441138e-02 8.96478370e-02 1.07515380e-01 6.53404295e-02
      8.09101537e-02 2.67060101e-01 1.39113083e-01 1.43610075e-01
      4.53401394e-02 1.04589999e-01 1.12551145e-01 8.43074545e-02
      7.91651607e-02 1.10593468e-01 2.73109168e-01 2.73109168e-01
      1.45484935e-02 2.12948713e-02 1.84209228e-01 2.70933300e-01
      2.73109168e-01 2.73109168e-01 1.26330122e-01 8.57038945e-02
      1.06646419e-01 1.16123311e-01 6.17071204e-02 2.02501222e-01
      2.73109168e-01 2.73109168e-01 2.73109168e-01 7.80332088e-02
      6.43736795e-02 1.33006111e-01 2.92907715e-01 2.92907715e-01
      1.06636681e-01 7.38176564e-03 5.10102622e-02 2.08531227e-02
      5.76828197e-02 1.19585343e-01 2.92907715e-01 2.92907715e-01
      2.66427040e-01 1.13596439e-01 1.56216938e-02 1.72845274e-02
      2.66499328e-03 3.38168480e-02 1.32479057e-01 2.92907715e-01
      2.34050453e-01 1.12403929e-01 2.90375166e-02 5.91747637e-04
      9.75927152e-03 1.39020826e-03 4.03668880e-02 1.76507145e-01
      2.92907715e-01 2.92907715e-01 2.27253854e-01 6.08879849e-02
      1.82823688e-02 2.85350177e-02 4.75851074e-03 2.33114175e-02
      1.31475091e-01 2.92907715e-01 2.85643935e-01 1.15316950e-01
      6.68878481e-02 6.07277118e-02 1.17884919e-01 1.42493486e-01
      3.20894159e-02 6.90058842e-02 1.29272804e-01 8.34067464e-02
      6.41889796e-02 1.52546227e-01 2.85643935e-01 2.85643935e-01
      2.85643935e-01 3.91797163e-02 5.06686755e-02 2.54447591e-02
      2.85643935e-01 1.72166884e-01 1.26186535e-01 9.48026478e-02
      1.03207111e-01 1.37509242e-01 5.78945540e-02 6.30870834e-02
      1.65538609e-01 9.74203423e-02 1.12496972e-01 2.27730900e-01
      2.85643935e-01 2.85643935e-01 2.85643935e-01 1.70291737e-01
      4.96248119e-02 5.31783961e-02 1.59586295e-01 1.09951541e-01
      1.43287063e-01 2.43263945e-01 2.43263945e-01 1.10382937e-01
      1.27715431e-02 1.59185063e-02 4.25144769e-02 2.43263945e-01
      2.29233235e-01 1.85655445e-01 1.57460973e-01 6.77809492e-02
      1.08162902e-01 1.08282380e-01 9.94782075e-02 1.32947043e-01
      1.31810799e-01 1.59981206e-01 1.53920934e-01 2.04818979e-01
      2.43263945e-01 2.15389684e-01 1.17011055e-01 6.29089922e-02
      1.22373313e-01 2.43263945e-01 2.43263945e-01 1.68364808e-01
      1.64249077e-01 9.14934576e-02 9.72238779e-02 1.53226942e-01
      2.43263945e-01 2.43263945e-01 8.04704130e-02 7.68050328e-02
      1.62280262e-01 1.88039288e-01 1.53770089e-01 1.54902875e-01
      1.55393273e-01 1.25171453e-01 4.46339659e-02 3.87834422e-02
      4.82711047e-02 1.13762304e-01 1.54512644e-01 2.25055024e-01
      1.85032129e-01 1.65600985e-01 2.25055024e-01 2.16843322e-01
      7.37190023e-02 8.51416737e-02 1.67785451e-01 2.25055024e-01
      1.27589568e-01 9.74368751e-02 2.25055024e-01 2.25055024e-01
      9.35090780e-02 2.25055024e-01 1.90543562e-01 2.25055024e-01
      1.98636219e-01 1.39061317e-01 8.91744047e-02 2.25055024e-01
      2.25055024e-01 2.25055024e-01 1.14298552e-01 3.92249599e-02
      3.01802680e-02 3.53317373e-02 4.60761078e-02 2.95990314e-02
      3.35106738e-02 1.65622979e-01 3.15507233e-01 3.15507233e-01
      2.39796862e-01 4.24223691e-02 2.75590736e-02 2.71368446e-03
      5.92227909e-04 2.90783611e-03 7.36389086e-02 3.15507233e-01
      3.15507233e-01 1.49034232e-01 7.83483908e-02 2.98412628e-02
      1.95216537e-02 1.29872886e-02 2.97082923e-02 7.60863349e-02
      3.15507233e-01 3.15507233e-01 3.15507233e-01 7.41555914e-02
      5.94742708e-02 1.61724165e-04 4.14346490e-04 8.38831253e-03
      2.02743709e-01 3.15507233e-01 2.80096591e-01 1.75561085e-01
      1.59632787e-02 1.31618185e-02 2.59576365e-04 6.61365222e-03
      1.50261531e-02 9.30119529e-02 2.80096591e-01 2.34737888e-01
      4.12770435e-02 9.88138840e-03 1.31454905e-02 2.14301739e-02
      6.07014000e-02 1.42525569e-01 2.80096591e-01 2.80096591e-01
      2.80096591e-01 2.57596701e-01 4.19527702e-02 4.82886992e-02
      1.49621221e-04 1.71422269e-02 2.74262745e-02 1.90222263e-01
      2.80096591e-01 2.80096591e-01 1.64210349e-01 5.09252213e-02
      4.47892286e-02 2.75545418e-02 9.43914354e-02 2.05050692e-01
      2.38550812e-01 2.80096591e-01 2.84522474e-02 9.27201472e-03
      1.15360087e-02 5.57193868e-02 2.36441463e-01 2.73107588e-01
      2.07316756e-01 2.20202118e-01 1.42411441e-01 2.25433894e-03
      6.08723704e-03 6.01360276e-02 1.45281047e-01 3.02122802e-01
      3.02122802e-01 1.20964766e-01 4.13331389e-02 2.01112460e-02
      1.86570153e-01 1.35743558e-01 1.20230675e-01 2.29711264e-01
      2.83475846e-01 1.33306026e-01 1.53223693e-01 1.03510261e-01
      1.06116377e-01 4.08418216e-02 6.64705113e-02 1.03295833e-01
      3.02122802e-01 3.02122802e-01 2.19508380e-01 7.18987510e-02
      7.20205307e-02 6.81644455e-02 3.29685807e-02 2.92061511e-02
      2.38760188e-01 1.93889022e-01 2.88369775e-01 2.41147667e-01
      4.76811938e-02 6.00575171e-02 1.36483237e-01 1.71154156e-01
      8.70603472e-02 2.11710721e-01 1.07982524e-01 1.15898818e-01
      1.02862708e-01 9.33679342e-02 1.53185278e-01 2.88369775e-01
      5.56737557e-02 4.42287512e-02 3.11749913e-02 1.50093704e-01
      2.88369775e-01 2.42715448e-01 1.49730757e-01 2.10100234e-01
      2.08423823e-01 1.70055702e-01 1.60044581e-01 1.25138968e-01
      9.54720899e-02 1.06177159e-01 1.21827327e-01 1.11426562e-01
      1.42938107e-01 2.88369775e-01 1.03202403e-01 5.82014322e-02
      7.15022683e-02 7.74118006e-02 1.06310658e-01 1.55241653e-01
      1.65362105e-01 1.72744602e-01 1.83572933e-01 1.34660276e-02
      2.09723897e-02 2.86349375e-02 6.78652376e-02 3.38219643e-01
      3.38219643e-01 2.25537300e-01 1.15604006e-01 1.13727385e-02
      8.40054154e-02 1.41640738e-01 1.52970985e-01 1.52517617e-01
      1.17733009e-01 1.07647061e-01 8.87761414e-02 1.04109138e-01
      1.81908786e-01 2.10649278e-02 1.02249473e-01 1.42112300e-01
      3.38219643e-01 3.38219643e-01 3.38219643e-01 1.06331699e-01
      7.78708234e-02 5.75811490e-02 5.17988065e-03 4.76517063e-03
      3.22298333e-02 1.16380967e-01 3.45471025e-01 3.45471025e-01
      1.12296686e-01 4.99885865e-02 1.69195272e-02 4.17084657e-02
      2.23515108e-02 5.48151731e-02 1.19372465e-01 2.77742743e-01
      2.03059450e-01 6.23478368e-02 1.11869812e-01 8.95907655e-02
      3.93862762e-02 4.26961891e-02 1.02970339e-01 3.12378436e-01
      3.45471025e-01 3.45471025e-01 9.03064236e-02 5.64602241e-02
      4.65082787e-02 1.67858273e-01 9.44018066e-02 1.21269412e-01
      1.07392520e-01 2.74538130e-01 1.63974196e-01 7.13051185e-02
      1.01635508e-01 1.44078553e-01 2.47781247e-01 1.04454830e-01
      6.63840771e-02 9.78289247e-02 1.09987140e-01 1.42552063e-01
      8.17949027e-02 2.17365518e-01 2.66677350e-01 2.61076063e-01
      1.46495029e-01 5.58088981e-02 5.20606562e-02 3.88064124e-02
      1.23607993e-01 1.50856391e-01 2.02585638e-01 2.53945410e-01
      2.66677350e-01 2.66677350e-01 1.90211490e-01 4.98946495e-02
      1.63430907e-02 2.44129077e-02 3.25861499e-02 1.57151461e-01
      2.66677350e-01 2.66677350e-01 2.55510360e-01 1.04305387e-01
      3.16439159e-02 6.85531786e-03 4.63534100e-03 3.25540416e-02
      1.17854603e-01 2.66677350e-01 2.01905742e-01 1.93761721e-01
      1.59877315e-01 4.23147827e-02 2.62798257e-02 7.89335221e-02
      1.92663088e-01 2.75802940e-01 2.75802940e-01 9.32726860e-02
      1.64946347e-01 1.70022234e-01 9.89310965e-02 8.93313810e-02
      9.39240977e-02 1.00733966e-01 2.10316688e-01 2.38967627e-01
      2.75802940e-01 2.51007974e-01 1.73895985e-01 4.34526019e-02
      2.17530187e-02 8.40319041e-03 6.38775900e-02 1.21437557e-01
      2.75802940e-01 1.99352354e-01 1.54054224e-01 1.42384991e-01
      4.74555492e-02 1.54517874e-01 5.17621711e-02 7.36663267e-02
      1.78413004e-01 2.75802940e-01 5.02275489e-02 8.76852721e-02
      4.85441498e-02 9.93308276e-02 7.52762035e-02 1.29515424e-01
      1.62524179e-01 1.96278110e-01 1.42824173e-01 8.08632821e-02
      1.28325537e-01 6.97152540e-02 2.54462630e-01 2.02004924e-01
      2.16193333e-01 2.54462630e-01 2.54462630e-01 1.95698828e-01
      6.56788126e-02 9.11724120e-02 7.24799186e-02 6.97205365e-02
      1.75437361e-01 6.35739118e-02 7.24387392e-02 2.26136580e-01
      2.54462630e-01 8.88609514e-02 1.20493084e-01 1.60010725e-01
      2.54462630e-01 2.54462630e-01 1.47489205e-01 1.08659446e-01
      2.54462630e-01 2.54462630e-01 2.41931155e-02 2.72303447e-02
      1.96542162e-02 6.60387576e-02 1.07456714e-01 2.10744187e-01
      2.11160749e-01 1.63400620e-01 5.91926277e-02 1.01657454e-02
      1.01794088e-02 3.76027040e-02 1.21114261e-01 3.46668541e-01
      3.46668541e-01 2.27566868e-01 9.45316255e-02 4.96238321e-02
      3.87582593e-02 4.64836583e-02 6.96146563e-02 1.73867032e-01
      2.98406333e-01 2.79790014e-01 1.07451200e-01 7.53448531e-02
      9.12025869e-02 3.17862891e-02 1.82864256e-02 2.32826937e-02
      2.09872559e-01 3.46668541e-01 3.46668541e-01 1.28100768e-01
      3.80001329e-02 6.42098859e-02 4.67360532e-03 4.30301717e-03
      3.98884602e-02 1.28818214e-01 3.34741473e-01 3.07130218e-01
      5.26830740e-02 1.36173200e-02 5.00341319e-02 2.46970300e-02
      1.50742726e-02 3.40543129e-02 1.63721874e-01 3.34741473e-01
      2.40968853e-01 2.32862476e-02 6.05170568e-03 3.68191190e-02
      2.85440050e-02 2.87243770e-03 1.81654980e-03 1.93170205e-01
      3.34741473e-01 3.34741473e-01 1.72302164e-02 4.64155950e-04
      2.40671095e-02 3.07215322e-02 2.23773215e-02 1.09817367e-02
      3.22972387e-01 3.34741473e-01 2.89504141e-01 4.23985859e-03
      3.52175953e-03 2.89548766e-02 2.66305298e-01 2.66305298e-01
      8.24557468e-02 1.86424591e-02 4.21278132e-03 5.42079937e-03
      3.16321366e-02 8.99025798e-02 2.25522697e-01 2.66305298e-01
      2.66305298e-01 8.65205526e-02 6.16383292e-02 6.02458641e-02
      3.88887040e-02 2.19017994e-02 9.18418542e-02 2.66305298e-01
      2.50701547e-01 2.66305298e-01 1.27353132e-01 9.80719104e-02
      2.32004076e-02 2.18616389e-02 3.08140256e-02 8.51111636e-02
      1.25343204e-01 2.45560363e-01 2.66305298e-01 1.58708692e-01
      2.66305298e-01 2.50133783e-01 1.41193524e-01 4.62567918e-02
      9.63628814e-02 2.10918754e-01 1.62331641e-01 1.51276693e-01
      9.55996439e-02 1.05254456e-01 1.40776888e-01 1.05938911e-01
      7.37298876e-02 6.85933754e-02 2.07520559e-01 6.14087917e-02
      1.15701489e-01 2.11401343e-01 2.49832228e-01 2.49832228e-01
      2.49832228e-01 2.13213280e-01 7.98436254e-02 8.15375447e-02
      8.56924951e-02 1.81772575e-01 1.28890589e-01 2.17134610e-01
      2.42404684e-01 1.94016412e-01 1.37959525e-01 4.29582633e-02
      9.67713743e-02 5.10312095e-02 1.13545053e-01 1.53725863e-01
      2.49832228e-01 2.49832228e-01 2.49832228e-01 2.49832228e-01
      1.14244998e-01 5.98925352e-02 1.49683326e-01 1.52221158e-01
      1.69253960e-01 1.83800846e-01 1.50098220e-01 1.60724670e-01
      1.30814686e-01 1.39849588e-01 1.92440376e-01 2.28553802e-01
      2.28553802e-01 1.68494135e-01 1.98140413e-01 4.85458001e-02
      4.83307280e-02 8.14874172e-02 2.28553802e-01 2.28553802e-01
      2.15203032e-01 8.54752138e-02 6.85795397e-02 1.17647201e-01
      1.02285072e-01 2.28553802e-01 1.82972759e-01 1.93575606e-01
      1.73586637e-01 2.28553802e-01 1.60272762e-01 1.11907348e-01
      1.38033226e-01 5.81402406e-02 1.29342884e-01 9.84159112e-02
      2.28553802e-01 2.28553802e-01 5.07874563e-02 7.47674629e-02
      1.69992328e-01 2.31709763e-01 9.21326876e-02 4.72220555e-02
      1.32928878e-01 1.33851483e-01 6.10443801e-02 2.09371597e-01
      2.31441125e-01 2.31709763e-01 2.31709763e-01 1.73995912e-01
      6.54167160e-02 1.52890280e-01 1.27098277e-01 1.41924426e-01
      6.23514876e-02 7.63246641e-02 1.76181033e-01 1.76594183e-01
      1.20484687e-01 1.46837890e-01 1.59494326e-01 1.34219632e-01
      5.35309203e-02 1.12089641e-01 1.85729638e-01 2.31709763e-01
      2.31709763e-01 2.31709763e-01 1.85362682e-01 2.31709763e-01
      2.31709763e-01 2.31709763e-01 3.32003504e-01 1.62736803e-01
      1.05985180e-01 6.51904792e-02 7.38394484e-02 3.18632871e-02
      3.42483334e-02 5.47131300e-02 1.77069589e-01 3.51708502e-01
      1.31995261e-01 3.44852917e-02 1.64254531e-02 3.58330645e-02
      2.73344107e-02 2.23046783e-02 1.23491719e-01 3.51708502e-01
      1.66482806e-01 1.07858218e-01 8.61625746e-02 6.72806054e-02
      1.05019644e-01 6.50823340e-02 8.70066136e-02 1.60086110e-01
      3.51708502e-01 3.51708502e-01 7.67660290e-02 2.05146894e-02
      7.00557372e-03 4.76171151e-02 4.17979881e-02 4.72662896e-02
      1.86484799e-01 3.51708502e-01 3.45270306e-01 5.22027984e-02
      9.63719469e-03 9.78886522e-03 2.35381420e-03 8.38264264e-03
      9.99502186e-03 7.28522539e-02 3.45270306e-01 3.45270306e-01
      1.16356388e-01 1.71561744e-02 1.30348913e-02 8.46287794e-03
      2.59622931e-02 3.83563414e-02 4.02788818e-02 3.45270306e-01
      3.45270306e-01 2.73633990e-02 1.71468488e-03 0. 3.04155494e-03
      6.61569368e-03 7.40077626e-03 6.62417710e-02 3.45270306e-01
      3.45270306e-01 1.03179984e-01 1.93858752e-03 4.39123577e-03
      7.98925105e-03 1.32084349e-02 9.21025127e-03 1.94578767e-02
      3.45270306e-01 2.91468799e-01 2.21790463e-01 1.17370076e-01
      1.55601531e-01 7.73779079e-02 3.24511603e-02 5.10616750e-02
      5.03215455e-02 2.50757873e-01 1.29031405e-01 1.31353840e-01
      1.27660006e-01 2.73125619e-01 2.71961302e-01 1.06318012e-01
      8.89283419e-02 1.48957208e-01 1.80485979e-01 2.91468799e-01
      1.83254510e-01 3.89945097e-02 5.74208498e-02 2.40144692e-02
      1.84613615e-02 1.15538901e-02 2.48648133e-02 2.91468799e-01
      2.91468799e-01 1.41159907e-01 8.93718079e-02 1.55523375e-01
      1.07237466e-01 1.22477040e-01 1.05550162e-01 1.22714140e-01
      2.78257370e-01 2.88991686e-02 3.37519869e-02 2.56201308e-02
      1.56182259e-01 2.66114920e-01 1.85124353e-01 1.71242654e-01
      2.45894775e-01 1.70995221e-01 3.74923795e-02 7.55173340e-02
      4.66288589e-02 1.99266061e-01 2.08152086e-01 1.46338180e-01
      1.12172149e-01 1.11940056e-01 5.92030622e-02 1.14410043e-01
      4.94058095e-02 4.66746539e-02 2.48907566e-01 2.66114920e-01
      2.66114920e-01 2.66114920e-01 1.58269137e-01 1.40485734e-01
      1.26483478e-02 4.97043505e-02 1.14262290e-01 2.66114920e-01
      2.66114920e-01 2.66114920e-01 1.73907548e-01 7.47441202e-02
      5.46062216e-02 4.04632166e-02 9.98711810e-02 1.26466900e-01
      2.21463501e-01 1.13553710e-01 6.08688854e-02 5.16254865e-02
      7.26334676e-02 9.18624327e-02 1.96975358e-02 8.64992142e-02
      2.63608694e-01 3.19569260e-01 3.19569260e-01 1.16192073e-01
      3.87542099e-02 4.04141359e-02 5.55886216e-02 1.32137453e-02
      6.01033941e-02 3.19569260e-01 3.19569260e-01 1.91124573e-01
      1.56808823e-01 3.52013111e-02 4.41854484e-02 4.76215333e-02
      3.50046204e-03 3.30419056e-02 3.19569260e-01 3.19569260e-01
      3.19569260e-01 6.01035058e-02 5.69304312e-03 6.52495353e-03
      8.00286233e-03 7.76271150e-02 9.42053795e-02 2.59376764e-01
      2.90546507e-01 2.90546507e-01 2.17357934e-01 8.81672800e-02
      4.06434909e-02 4.84076515e-02 2.90546507e-01 1.82732284e-01
      1.74680620e-01 1.31937444e-01 1.58707380e-01 1.01523347e-01
      9.81309712e-02 5.22038564e-02 1.14615627e-01 3.54380868e-02
      4.71257083e-02 1.92308098e-01 2.90546507e-01 2.90546507e-01
      2.11440563e-01 8.71858671e-02 2.55096946e-02 1.12113608e-02
      1.93838432e-01 1.00577459e-01 9.05256420e-02 1.01972282e-01
      1.69965729e-01 1.56637996e-01 1.91113785e-01 1.33023486e-01
      1.55085921e-01 2.96071798e-01 2.96071798e-01 1.49267823e-01
      4.23350483e-02 1.07386438e-02 1.44553278e-02 4.24986519e-02
      4.03578356e-02 1.05047166e-01 2.96071798e-01 2.72740513e-01
      9.68966410e-02 2.35504694e-02 1.03684783e-03 4.87305084e-03
      1.29713481e-02 3.90103869e-02 1.43476173e-01 2.96071798e-01
      1.95100591e-01 1.29473582e-01 4.85858731e-02 2.28529256e-02
      4.19307351e-02 1.38048187e-01 1.69591472e-01 2.96071798e-01
      2.96071798e-01 2.64571548e-01 2.76925385e-01 8.16266686e-02
      1.92074813e-02 2.35814266e-02 4.71478924e-02 7.95867145e-02
      2.35529289e-01 3.26602280e-01 1.12404734e-01 5.66141233e-02
      9.94062237e-03 2.80262134e-03 3.11189983e-03 9.69285890e-03
      2.85750851e-02 2.44782373e-01 3.26602280e-01 5.97184375e-02
      3.62364203e-02 6.78437715e-03 4.77146842e-02 2.76434850e-02
      1.70221366e-02 7.29043633e-02 3.26602280e-01 3.26602280e-01
      1.66388705e-01 2.07086116e-01 3.58437560e-02 5.58372401e-03
      9.84983612e-03 4.65380512e-02 1.62147954e-01 2.90613145e-01
      3.26602280e-01 1.07457407e-01 1.20248064e-01 6.35001762e-03
      1.99810807e-02 2.54416689e-02 4.99587655e-02 2.27771953e-01
      3.26602280e-01 2.95166880e-01 7.78820589e-02 3.03184930e-02
      5.22545204e-02 1.37701914e-01 5.49920276e-02 4.87123542e-02
      1.34602055e-01 2.50989884e-01 6.07091188e-02 6.06398918e-02
      5.58976904e-02 2.95166880e-01 2.95166880e-01 1.57266200e-01
      4.84086387e-02 7.86646754e-02 7.73871243e-02 2.95166880e-01
      1.38022423e-01 3.57778817e-02 3.34430635e-02 1.14842474e-01
      1.03813842e-01 9.27223787e-02 1.66807577e-01 2.95166880e-01
      1.80061236e-01 8.99876952e-02 3.10269985e-02 1.79850459e-01
      2.95166880e-01 2.95166880e-01 1.75476983e-01 1.42055690e-01
      1.24981195e-01 1.48521774e-02 9.61805973e-03 2.90072411e-02
      1.75071523e-01 3.30862105e-01 1.68990105e-01 1.51218269e-02
      7.15688989e-03 2.70852875e-02 2.01644935e-02 3.56932310e-03
      1.43585196e-02 2.55718499e-01 3.30862105e-01 3.30862105e-01
      1.94954667e-02 4.78416309e-03 2.74224319e-02 4.02937941e-02
      4.67413943e-03 7.72467181e-02 1.87915325e-01 3.02371532e-01
      2.16543838e-01 6.68152869e-02 7.51205012e-02 3.58131677e-02
      3.26893814e-02 3.75130610e-03 1.14151724e-01 3.30862105e-01
      3.30862105e-01 3.30862105e-01 4.19893526e-02 3.55038941e-02
      3.94494198e-02 2.55657118e-02 5.34060237e-04 4.59349575e-03
      2.09985882e-01 3.11420798e-01 3.11420798e-01 1.20189246e-02
